<?xml version="1.0"?>
<opencv_storage>
<cascade>
  <stageType>BOOST</stageType>
  <featureType>HAAR</featureType>
  <height>24</height>
  <width>24</width>
  <stageParams>
    <boostType>GAB</boostType>
    <minHitRate>9.9500000476837158e-01</minHitRate>
    <maxFalseAlarm>5.0000000000000000e-01</maxFalseAlarm>
    <weightTrimRate>9.4999998807907104e-01</weightTrimRate>
    <maxDepth>1</maxDepth>
    <maxWeakCount>100</maxWeakCount></stageParams>
  <featureParams>
    <maxCatCount>0</maxCatCount>
    <featSize>1</featSize>
    <mode>BASIC</mode></featureParams>
  <stageNum>23</stageNum>
  <stages>
    <!-- stage 0 -->
    <_>
      <maxWeakCount>9</maxWeakCount>
      <stageThreshold>-1.3399286270141602e+00</stageThreshold>
      <weakClassifiers>
        <_>
          <internalNodes>
            0 -1 277 -1.3422412797808647e-02</internalNodes>
          <leafValues>
            6.8025076389312744e-01 -3.7349396944046021e-01</leafValues></_>
        <_>
          <internalNodes>
            0 -1 198 1.4578860253095627e-02</internalNodes>
          <leafValues>
            -2.6373136043548584e-01 6.6655695438385010e-01</leafValues></_>
        <_>
          <internalNodes>
            0 -1 536 -4.0212981402873993e-03</internalNodes>
          <leafValues>
            3.9977550506591797e-01 -3.3339798450469971e-01</leafValues></_>
        <_>
          <internalNodes>
            0 -1 557 3.1621456146240234e-02</internalNodes>
          <leafValues>
            -2.0274552702903748e-01 6.2942904233932495e-01</leafValues></_>
        <_>
          <internalNodes>
            0 -1 483 -4.9441747367382050e-02</internalNodes>
          <leafValues>
            5.4903358221054077e-01 -2.3922079801559448e-01</leafValues></_>
        <_>
          <internalNodes>
            0 -1 282 1.6309949569404125e-03</internalNodes>
          <leafValues>
            -2.1645726263523102e-01 5.3784924745559692e-01</leafValues></_>
        <_>
          <internalNodes>
            0 -1 258 8.8288094848394394e-03</internalNodes>
          <leafValues>
            -2.1659573912620544e-01 5.8809578418731689e-01</leafValues></_>
        <_>
          <internalNodes>
            0 -1 27 -5.0285004079341888e-02</internalNodes>
          <leafValues>
            5.5125212669372559e-01 -1.9920085370540619e-01</leafValues></_>
        <_>
          <internalNodes>
            0 -1 243 2.2520542144775391e-02</internalNodes>
          <leafValues>
            -1.9637782871723175e-01 7.0491480827331543e-01</leafValues></_></weakClassifiers></_>
    <!-- stage 1 -->
    <_>
      <maxWeakCount>13</maxWeakCount>
      <stageThreshold>-8.6811053752899170e-01</stageThreshold>
      <weakClassifiers>
        <_>
          <internalNodes>
            0 -1 134 1.4098303020000458e-01</internalNodes>
          <leafValues>
            -2.8929385542869568e-01 7.8881984949111938e-01</leafValues></_>
        <_>
          <internalNodes>
            0 -1 26 -5.3861699998378754e-02</internalNodes>
          <leafValues>
            7.2876209020614624e-01 -2.5883632898330688e-01</leafValues></_>
        <_>
          <internalNodes>
            0 -1 455 -3.7019606679677963e-02</internalNodes>
          <leafValues>
            8.0700814723968506e-01 -1.5999123454093933e-01</leafValues></_>
        <_>
          <internalNodes>
            0 -1 416 7.2198048233985901e-02</internalNodes>
          <leafValues>
            -1.9386163353919983e-01 7.3324096202850342e-01</leafValues></_>
        <_>
          <internalNodes>
            0 -1 144 1.7804088070988655e-02</internalNodes>
          <leafValues>
            -1.8340802192687988e-01 6.1110168695449829e-01</leafValues></_>
        <_>
          <internalNodes>
            0 -1 355 7.3291495442390442e-02</internalNodes>
          <leafValues>
            1.8570728600025177e-01 -7.0468401908874512e-01</leafValues></_>
        <_>
          <internalNodes>
            0 -1 18 -4.3192304670810699e-02</internalNodes>
          <leafValues>
            5.2778840065002441e-01 -2.2822442650794983e-01</leafValues></_>
        <_>
          <internalNodes>
            0 -1 14 1.6109431162476540e-03</internalNodes>
          <leafValues>
            1.8612827360630035e-01 -7.0088791847229004e-01</leafValues></_>
        <_>
          <internalNodes>
            0 -1 93 -5.1362082362174988e-02</internalNodes>
          <leafValues>
            6.3641130924224854e-01 -2.2210974991321564e-01</leafValues></_>
        <_>
          <internalNodes>
            0 -1 584 4.8961061984300613e-03</internalNodes>
          <leafValues>
            1.6835165023803711e-01 -7.7216875553131104e-01</leafValues></_>
        <_>
          <internalNodes>
            0 -1 102 3.4304767847061157e-02</internalNodes>
          <leafValues>
            -2.2530744969844818e-01 5.5990982055664063e-01</leafValues></_>
        <_>
          <internalNodes>
            0 -1 328 9.9942609667778015e-03</internalNodes>
          <leafValues>
            -1.6470679640769958e-01 5.4484039545059204e-01</leafValues></_>
        <_>
          <internalNodes>
            0 -1 117 -2.0779445767402649e-02</internalNodes>
          <leafValues>
            5.9497720003128052e-01 -1.2176485359668732e-01</leafValues></_></weakClassifiers></_>
    <!-- stage 2 -->
    <_>
      <maxWeakCount>19</maxWeakCount>
      <stageThreshold>-1.2109515666961670e+00</stageThreshold>
      <weakClassifiers>
        <_>
          <internalNodes>
            0 -1 163 5.4404646158218384e-02</internalNodes>
          <leafValues>
            -2.2820317745208740e-01 6.2577962875366211e-01</leafValues></_>
        <_>
          <internalNodes>
            0 -1 30 -6.3267409801483154e-02</internalNodes>
          <leafValues>
            6.9233858585357666e-01 -1.7596088349819183e-01</leafValues></_>
        <_>
          <internalNodes>
            0 -1 535 -1.4472463168203831e-02</internalNodes>
          <leafValues>
            5.6936377286911011e-01 -1.6745512187480927e-01</leafValues></_>
        <_>
          <internalNodes>
            0 -1 464 5.1137577742338181e-02</internalNodes>
          <leafValues>
            -1.3225205242633820e-01 5.5777144432067871e-01</leafValues></_>
        <_>
          <internalNodes>
            0 -1 531 7.5144775211811066e-02</internalNodes>
          <leafValues>
            -1.3214969635009766e-01 6.7836135625839233e-01</leafValues></_>
        <_>
          <internalNodes>
            0 -1 527 -1.1725157492037397e-05</internalNodes>
          <leafValues>
            3.2071751356124878e-01 -2.5211578607559204e-01</leafValues></_>
        <_>
          <internalNodes>
            0 -1 183 1.8919136375188828e-02</internalNodes>
          <leafValues>
            -1.7693617939949036e-01 5.0361782312393188e-01</leafValues></_>
        <_>
          <internalNodes>
            0 -1 170 2.7309099677950144e-03</internalNodes>
          <leafValues>
            -1.6717548668384552e-01 4.0907165408134460e-01</leafValues></_>
        <_>
          <internalNodes>
            0 -1 86 -3.8900256156921387e-02</internalNodes>
          <leafValues>
            5.7470530271530151e-01 -1.1796862632036209e-01</leafValues></_>
        <_>
          <internalNodes>
            0 -1 84 8.9170224964618683e-04</internalNodes>
          <leafValues>
            1.8205411732196808e-01 -5.1083642244338989e-01</leafValues></_>
        <_>
          <internalNodes>
            0 -1 363 1.1480825487524271e-03</internalNodes>
          <leafValues>
            -2.6391491293907166e-01 2.8467011451721191e-01</leafValues></_>
        <_>
          <internalNodes>
            0 -1 286 1.5550093725323677e-02</internalNodes>
          <leafValues>
            -1.6621583700180054e-01 4.3312978744506836e-01</leafValues></_>
        <_>
          <internalNodes>
            0 -1 313 2.6125807315111160e-02</internalNodes>
          <leafValues>
            -1.8394176661968231e-01 3.8964465260505676e-01</leafValues></_>
        <_>
          <internalNodes>
            0 -1 507 4.8426380380988121e-03</internalNodes>
          <leafValues>
            -1.9478972256183624e-01 4.3233042955398560e-01</leafValues></_>
        <_>
          <internalNodes>
            0 -1 236 -1.0061874054372311e-03</internalNodes>
          <leafValues>
            3.0489060282707214e-01 -2.4758110940456390e-01</leafValues></_>
        <_>
          <internalNodes>
            0 -1 353 -8.4351293742656708e-02</internalNodes>
          <leafValues>
            -6.0237693786621094e-01 1.3587509095668793e-01</leafValues></_>
        <_>
          <internalNodes>
            0 -1 24 1.6755476826801896e-03</internalNodes>
          <leafValues>
            1.0233677178621292e-01 -5.5288141965866089e-01</leafValues></_>
        <_>
          <internalNodes>
            0 -1 396 1.6864368808455765e-04</internalNodes>
          <leafValues>
            -2.3714073002338409e-01 2.8132900595664978e-01</leafValues></_>
        <_>
          <internalNodes>
            0 -1 493 1.6175159544218332e-05</internalNodes>
          <leafValues>
            -2.1917650103569031e-01 2.8524944186210632e-01</leafValues></_></weakClassifiers></_>
    <!-- stage 3 -->
    <_>
      <maxWeakCount>21</maxWeakCount>
      <stageThreshold>-1.1365264654159546e+00</stageThreshold>
      <weakClassifiers>
        <_>
          <internalNodes>
            0 -1 345 -6.7482076585292816e-02</internalNodes>
          <leafValues>
            6.1858189105987549e-01 -1.8188354372978210e-01</leafValues></_>
        <_>
          <internalNodes>
            0 -1 35 4.1988888382911682e-01</internalNodes>
          <leafValues>
            -1.3508908450603485e-01 6.2130224704742432e-01</leafValues></_>
        <_>
          <internalNodes>
            0 -1 17 -4.2760044336318970e-02</internalNodes>
          <leafValues>
            5.0308048725128174e-01 -1.9785933196544647e-01</leafValues></_>
        <_>
          <internalNodes>
            0 -1 369 1.1763288057409227e-05</internalNodes>
          <leafValues>
            -2.2970086336135864e-01 3.3159095048904419e-01</leafValues></_>
        <_>
          <internalNodes>
            0 -1 369 -1.3690576452063397e-05</internalNodes>
          <leafValues>
            3.3589741587638855e-01 -2.4459753930568695e-01</leafValues></_>
        <_>
          <internalNodes>
            0 -1 598 1.1195993283763528e-03</internalNodes>
          <leafValues>
            1.2351016700267792e-01 -6.1886495351791382e-01</leafValues></_>
        <_>
          <internalNodes>
            0 -1 574 3.4770086407661438e-02</internalNodes>
          <leafValues>
            -1.4707724750041962e-01 5.3945755958557129e-01</leafValues></_>
        <_>
          <internalNodes>
            0 -1 249 1.2990857612749096e-05</internalNodes>
          <leafValues>
            -2.6024138927459717e-01 3.2759630680084229e-01</leafValues></_>
        <_>
          <internalNodes>
            0 -1 8 1.1435026302933693e-02</internalNodes>
          <leafValues>
            1.2025801092386246e-01 -4.8790892958641052e-01</leafValues></_>
        <_>
          <internalNodes>
            0 -1 107 -1.6127554699778557e-02</internalNodes>
          <leafValues>
            3.0341988801956177e-01 -2.2565746307373047e-01</leafValues></_>
        <_>
          <internalNodes>
            0 -1 393 1.1985135643044487e-05</internalNodes>
          <leafValues>
            -2.0084658265113831e-01 3.4169027209281921e-01</leafValues></_>
        <_>
          <internalNodes>
            0 -1 49 -4.2307551484555006e-04</internalNodes>
          <leafValues>
            -5.6112134456634521e-01 1.0952302068471909e-01</leafValues></_>
        <_>
          <internalNodes>
            0 -1 490 -1.5711473679402843e-05</internalNodes>
          <leafValues>
            2.8783679008483887e-01 -2.3501244187355042e-01</leafValues></_>
        <_>
          <internalNodes>
            0 -1 177 4.7550778836011887e-03</internalNodes>
          <leafValues>
            -1.5196505188941956e-01 4.1029664874076843e-01</leafValues></_>
        <_>
          <internalNodes>
            0 -1 499 3.0247561633586884e-02</internalNodes>
          <leafValues>
            -1.2243856489658356e-01 5.5556923151016235e-01</leafValues></_>
        <_>
          <internalNodes>
            0 -1 592 -3.6709490232169628e-03</internalNodes>
          <leafValues>
            -7.2623986005783081e-01 9.8047748208045959e-02</leafValues></_>
        <_>
          <internalNodes>
            0 -1 629 3.3638067543506622e-04</internalNodes>
          <leafValues>
            1.4058971405029297e-01 -4.5179903507232666e-01</leafValues></_>
        <_>
          <internalNodes>
            0 -1 191 -5.9841116890311241e-03</internalNodes>
          <leafValues>
            4.9020287394523621e-01 -1.5535612404346466e-01</leafValues></_>
        <_>
          <internalNodes>
            0 -1 317 1.6244684957200661e-05</internalNodes>
          <leafValues>
            -2.5065511465072632e-01 3.1169196963310242e-01</leafValues></_>
        <_>
          <internalNodes>
            0 -1 266 -1.4570362865924835e-02</internalNodes>
          <leafValues>
            2.5108021497726440e-01 -2.8956460952758789e-01</leafValues></_>
        <_>
          <internalNodes>
            0 -1 518 -6.3786795362830162e-04</internalNodes>
          <leafValues>
            3.7818834185600281e-01 -1.7425820231437683e-01</leafValues></_></weakClassifiers></_>
    <!-- stage 4 -->
    <_>
      <maxWeakCount>23</maxWeakCount>
      <stageThreshold>-1.2490618228912354e+00</stageThreshold>
      <weakClassifiers>
        <_>
          <internalNodes>
            0 -1 244 -3.7229210138320923e-02</internalNodes>
          <leafValues>
            6.7157894372940063e-01 -2.4075472354888916e-01</leafValues></_>
        <_>
          <internalNodes>
            0 -1 48 3.8194912672042847e-01</internalNodes>
          <leafValues>
            -1.2839087843894958e-01 7.0077770948410034e-01</leafValues></_>
        <_>
          <internalNodes>
            0 -1 51 -5.9107728302478790e-02</internalNodes>
          <leafValues>
            6.2876534461975098e-01 -1.4036232233047485e-01</leafValues></_>
        <_>
          <internalNodes>
            0 -1 40 5.0614873180165887e-04</internalNodes>
          <leafValues>
            1.6135475039482117e-01 -5.0214892625808716e-01</leafValues></_>
        <_>
          <internalNodes>
            0 -1 38 -1.5898945275694132e-04</internalNodes>
          <leafValues>
            -4.0813502669334412e-01 1.9241331517696381e-01</leafValues></_>
        <_>
          <internalNodes>
            0 -1 312 5.2112285047769547e-02</internalNodes>
          <leafValues>
            -1.2836594879627228e-01 5.5080151557922363e-01</leafValues></_>
        <_>
          <internalNodes>
            0 -1 278 -6.6898770630359650e-02</internalNodes>
          <leafValues>
            5.5359554290771484e-01 -1.3328543305397034e-01</leafValues></_>
        <_>
          <internalNodes>
            0 -1 607 -5.2931386744603515e-04</internalNodes>
          <leafValues>
            -6.3941258192062378e-01 1.2306742370128632e-01</leafValues></_>
        <_>
          <internalNodes>
            0 -1 530 -6.1874173581600189e-02</internalNodes>
          <leafValues>
            5.6661444902420044e-01 -1.0286933928728104e-01</leafValues></_>
        <_>
          <internalNodes>
            0 -1 529 2.1054539829492569e-02</internalNodes>
          <leafValues>
            -1.7733456194400787e-01 4.7260424494743347e-01</leafValues></_>
        <_>
          <internalNodes>
            0 -1 73 -4.9154285807162523e-04</internalNodes>
          <leafValues>
            -4.8436394333839417e-01 1.3931024074554443e-01</leafValues></_>
        <_>
          <internalNodes>
            0 -1 614 -8.9333252981305122e-04</internalNodes>
          <leafValues>
            -6.3637739419937134e-01 1.0702668130397797e-01</leafValues></_>
        <_>
          <internalNodes>
            0 -1 479 -4.3497188016772270e-03</internalNodes>
          <leafValues>
            -8.1253737211227417e-01 6.1411071568727493e-02</leafValues></_>
        <_>
          <internalNodes>
            0 -1 421 -8.4937792271375656e-03</internalNodes>
          <leafValues>
            3.7099939584732056e-01 -1.9253122806549072e-01</leafValues></_>
        <_>
          <internalNodes>
            0 -1 614 4.1576765943318605e-04</internalNodes>
          <leafValues>
            1.4585168659687042e-01 -4.8270222544670105e-01</leafValues></_>
        <_>
          <internalNodes>
            0 -1 57 2.4533366784453392e-02</internalNodes>
          <leafValues>
            -1.2768854200839996e-01 6.2142258882522583e-01</leafValues></_>
        <_>
          <internalNodes>
            0 -1 456 -6.8468961399048567e-04</internalNodes>
          <leafValues>
            -5.2620333433151245e-01 1.3783332705497742e-01</leafValues></_>
        <_>
          <internalNodes>
            0 -1 25 -1.8083715811371803e-02</internalNodes>
          <leafValues>
            2.7364650368690491e-01 -2.2996528446674347e-01</leafValues></_>
        <_>
          <internalNodes>
            0 -1 89 1.2872116640210152e-02</internalNodes>
          <leafValues>
            -1.1172202229499817e-01 5.8195805549621582e-01</leafValues></_>
        <_>
          <internalNodes>
            0 -1 623 3.1301187118515372e-04</internalNodes>
          <leafValues>
            1.3699726760387421e-01 -4.4146862626075745e-01</leafValues></_>
        <_>
          <internalNodes>
            0 -1 330 3.6288322880864143e-03</internalNodes>
          <leafValues>
            -1.6815364360809326e-01 3.7903615832328796e-01</leafValues></_>
        <_>
          <internalNodes>
            0 -1 74 1.6403247136622667e-03</internalNodes>
          <leafValues>
            1.0043618083000183e-01 -6.8041670322418213e-01</leafValues></_>
        <_>
          <internalNodes>
            0 -1 553 -2.1957758814096451e-02</internalNodes>
          <leafValues>
            4.5148962736129761e-01 -1.5786592662334442e-01</leafValues></_></weakClassifiers></_>
    <!-- stage 5 -->
    <_>
      <maxWeakCount>17</maxWeakCount>
      <stageThreshold>-1.0021125078201294e+00</stageThreshold>
      <weakClassifiers>
        <_>
          <internalNodes>
            0 -1 346 6.1196602880954742e-02</internalNodes>
          <leafValues>
            -2.2257053852081299e-01 5.4198473691940308e-01</leafValues></_>
        <_>
          <internalNodes>
            0 -1 604 -3.1374063109979033e-04</internalNodes>
          <leafValues>
            -5.1672059297561646e-01 2.1481698751449585e-01</leafValues></_>
        <_>
          <internalNodes>
            0 -1 604 2.5697611272335052e-04</internalNodes>
          <leafValues>
            1.8847474455833435e-01 -5.0814038515090942e-01</leafValues></_>
        <_>
          <internalNodes>
            0 -1 47 -4.8865340650081635e-02</internalNodes>
          <leafValues>
            4.6827122569084167e-01 -2.0357391238212585e-01</leafValues></_>
        <_>
          <internalNodes>
            0 -1 406 -5.7611213997006416e-03</internalNodes>
          <leafValues>
            -8.3887594938278198e-01 8.1319481134414673e-02</leafValues></_>
        <_>
          <internalNodes>
            0 -1 609 1.4826983679085970e-03</internalNodes>
          <leafValues>
            1.3495233654975891e-01 -6.0275352001190186e-01</leafValues></_>
        <_>
          <internalNodes>
            0 -1 276 -5.0763972103595734e-02</internalNodes>
          <leafValues>
            -4.8848244547843933e-01 1.5031801164150238e-01</leafValues></_>
        <_>
          <internalNodes>
            0 -1 110 7.4603222310543060e-04</internalNodes>
          <leafValues>
            1.3521911203861237e-01 -5.4874354600906372e-01</leafValues></_>
        <_>
          <internalNodes>
            0 -1 106 8.4500527009367943e-04</internalNodes>
          <leafValues>
            1.5437318384647369e-01 -5.5362462997436523e-01</leafValues></_>
        <_>
          <internalNodes>
            0 -1 503 -5.3137823939323425e-02</internalNodes>
          <leafValues>
            4.8226213455200195e-01 -1.4869250357151031e-01</leafValues></_>
        <_>
          <internalNodes>
            0 -1 565 -1.4273324981331825e-02</internalNodes>
          <leafValues>
            4.9371039867401123e-01 -1.7579071223735809e-01</leafValues></_>
        <_>
          <internalNodes>
            0 -1 441 1.0803009569644928e-01</internalNodes>
          <leafValues>
            -1.1003558337688446e-01 5.7793331146240234e-01</leafValues></_>
        <_>
          <internalNodes>
            0 -1 278 3.9731573313474655e-02</internalNodes>
          <leafValues>
            -1.4664874970912933e-01 4.9863961338996887e-01</leafValues></_>
        <_>
          <internalNodes>
            0 -1 80 -2.2042475640773773e-02</internalNodes>
          <leafValues>
            4.2651477456092834e-01 -1.6730862855911255e-01</leafValues></_>
        <_>
          <internalNodes>
            0 -1 18 5.0569653511047363e-02</internalNodes>
          <leafValues>
            -1.5106785297393799e-01 5.6397402286529541e-01</leafValues></_>
        <_>
          <internalNodes>
            0 -1 122 6.0615193797275424e-04</internalNodes>
          <leafValues>
            1.4983969926834106e-01 -6.0982161760330200e-01</leafValues></_>
        <_>
          <internalNodes>
            0 -1 437 -2.8148102574050426e-03</internalNodes>
          <leafValues>
            -6.3168030977249146e-01 7.5428664684295654e-02</leafValues></_></weakClassifiers></_>
    <!-- stage 6 -->
    <_>
      <maxWeakCount>21</maxWeakCount>
      <stageThreshold>-9.6514892578125000e-01</stageThreshold>
      <weakClassifiers>
        <_>
          <internalNodes>
            0 -1 455 -4.3698340654373169e-02</internalNodes>
          <leafValues>
            5.6250000000000000e-01 -1.8639053404331207e-01</leafValues></_>
        <_>
          <internalNodes>
            0 -1 42 5.1647615432739258e-01</internalNodes>
          <leafValues>
            -1.1897127330303192e-01 7.5974941253662109e-01</leafValues></_>
        <_>
          <internalNodes>
            0 -1 19 -1.1456038057804108e-01</internalNodes>
          <leafValues>
            6.5812921524047852e-01 -1.1531335860490799e-01</leafValues></_>
        <_>
          <internalNodes>
            0 -1 610 -1.3741368893533945e-03</internalNodes>
          <leafValues>
            -4.8809543251991272e-01 1.4641122519969940e-01</leafValues></_>
        <_>
          <internalNodes>
            0 -1 162 4.6481817960739136e-02</internalNodes>
          <leafValues>
            -1.5344519913196564e-01 4.2730131745338440e-01</leafValues></_>
        <_>
          <internalNodes>
            0 -1 62 -6.7345646675676107e-04</internalNodes>
          <leafValues>
            -4.4026413559913635e-01 1.5638005733489990e-01</leafValues></_>
        <_>
          <internalNodes>
            0 -1 64 -7.5698865111917257e-04</internalNodes>
          <leafValues>
            -4.5909428596496582e-01 1.4911240339279175e-01</leafValues></_>
        <_>
          <internalNodes>
            0 -1 430 5.7811820879578590e-03</internalNodes>
          <leafValues>
            -1.6384693980216980e-01 3.4884789586067200e-01</leafValues></_>
        <_>
          <internalNodes>
            0 -1 543 8.6397632956504822e-02</internalNodes>
          <leafValues>
            -1.0724522173404694e-01 5.0582605600357056e-01</leafValues></_>
        <_>
          <internalNodes>
            0 -1 506 1.4323024079203606e-02</internalNodes>
          <leafValues>
            -1.4310713112354279e-01 4.3829441070556641e-01</leafValues></_>
        <_>
          <internalNodes>
            0 -1 473 -3.4500518813729286e-03</internalNodes>
          <leafValues>
            -6.5211504697799683e-01 1.0648487508296967e-01</leafValues></_>
        <_>
          <internalNodes>
            0 -1 23 -7.0292232558131218e-03</internalNodes>
          <leafValues>
            -5.2651602029800415e-01 1.2058422714471817e-01</leafValues></_>
        <_>
          <internalNodes>
            0 -1 132 -3.4218862652778625e-02</internalNodes>
          <leafValues>
            4.9090138077735901e-01 -1.3571594655513763e-01</leafValues></_>
        <_>
          <internalNodes>
            0 -1 34 -2.7056014165282249e-02</internalNodes>
          <leafValues>
            5.4193425178527832e-01 -1.0464460402727127e-01</leafValues></_>
        <_>
          <internalNodes>
            0 -1 81 2.5919035077095032e-02</internalNodes>
          <leafValues>
            -9.6521392464637756e-02 6.0967278480529785e-01</leafValues></_>
        <_>
          <internalNodes>
            0 -1 221 -5.9598991647362709e-03</internalNodes>
          <leafValues>
            3.9744728803634644e-01 -1.6796140372753143e-01</leafValues></_>
        <_>
          <internalNodes>
            0 -1 341 1.2122187763452530e-02</internalNodes>
          <leafValues>
            -1.2330946326255798e-01 5.3324353694915771e-01</leafValues></_>
        <_>
          <internalNodes>
            0 -1 628 -3.2829027622938156e-04</internalNodes>
          <leafValues>
            -4.5294842123985291e-01 1.5305785834789276e-01</leafValues></_>
        <_>
          <internalNodes>
            0 -1 380 1.6787316650152206e-02</internalNodes>
          <leafValues>
            -1.7375168204307556e-01 3.2056695222854614e-01</leafValues></_>
        <_>
          <internalNodes>
            0 -1 478 1.8292251043021679e-03</internalNodes>
          <leafValues>
            1.1178766936063766e-01 -5.0152844190597534e-01</leafValues></_>
        <_>
          <internalNodes>
            0 -1 87 -2.8327475301921368e-03</internalNodes>
          <leafValues>
            -5.4882836341857910e-01 9.6954822540283203e-02</leafValues></_></weakClassifiers></_>
    <!-- stage 7 -->
    <_>
      <maxWeakCount>23</maxWeakCount>
      <stageThreshold>-1.0664186477661133e+00</stageThreshold>
      <weakClassifiers>
        <_>
          <internalNodes>
            0 -1 446 1.5097943134605885e-02</internalNodes>
          <leafValues>
            -2.3759791254997253e-01 4.1935482621192932e-01</leafValues></_>
        <_>
          <internalNodes>
            0 -1 620 -2.4939666036516428e-04</internalNodes>
          <leafValues>
            -4.4727686047554016e-01 2.0064119994640350e-01</leafValues></_>
        <_>
          <internalNodes>
            0 -1 56 -4.9403053708374500e-04</internalNodes>
          <leafValues>
            -5.5199152231216431e-01 1.4128221571445465e-01</leafValues></_>
        <_>
          <internalNodes>
            0 -1 104 4.8355452599935234e-04</internalNodes>
          <leafValues>
            1.6481806337833405e-01 -4.9707064032554626e-01</leafValues></_>
        <_>
          <internalNodes>
            0 -1 28 -4.2864590883255005e-02</internalNodes>
          <leafValues>
            5.8047407865524292e-01 -1.2821064889431000e-01</leafValues></_>
        <_>
          <internalNodes>
            0 -1 98 5.3749859333038330e-02</internalNodes>
          <leafValues>
            -2.1913221478462219e-01 3.8082730770111084e-01</leafValues></_>
        <_>
          <internalNodes>
            0 -1 620 1.5934291877783835e-04</internalNodes>
          <leafValues>
            2.1810369193553925e-01 -3.7069332599639893e-01</leafValues></_>
        <_>
          <internalNodes>
            0 -1 231 2.2815521806478500e-02</internalNodes>
          <leafValues>
            -2.1996314823627472e-01 3.6004915833473206e-01</leafValues></_>
        <_>
          <internalNodes>
            0 -1 351 -1.6634404892101884e-03</internalNodes>
          <leafValues>
            -5.1670122146606445e-01 1.8167746067047119e-01</leafValues></_>
        <_>
          <internalNodes>
            0 -1 351 1.8125716596841812e-03</internalNodes>
          <leafValues>
            3.7348758429288864e-02 -6.3418680429458618e-01</leafValues></_>
        <_>
          <internalNodes>
            0 -1 267 5.9622926637530327e-03</internalNodes>
          <leafValues>
            -1.6109937429428101e-01 3.9033555984497070e-01</leafValues></_>
        <_>
          <internalNodes>
            0 -1 300 -7.4252625927329063e-04</internalNodes>
          <leafValues>
            -5.2544558048248291e-01 1.6113460063934326e-01</leafValues></_>
        <_>
          <internalNodes>
            0 -1 58 -2.6013476774096489e-02</internalNodes>
          <leafValues>
            4.0299722552299500e-01 -1.7799037694931030e-01</leafValues></_>
        <_>
          <internalNodes>
            0 -1 136 2.5908146053552628e-03</internalNodes>
          <leafValues>
            1.0860525816679001e-01 -5.9198230504989624e-01</leafValues></_>
        <_>
          <internalNodes>
            0 -1 188 1.5124147757887840e-02</internalNodes>
          <leafValues>
            -1.3106264173984528e-01 4.5239731669425964e-01</leafValues></_>
        <_>
          <internalNodes>
            0 -1 307 -1.3453959487378597e-02</internalNodes>
          <leafValues>
            3.8384672999382019e-01 -2.3103050887584686e-01</leafValues></_>
        <_>
          <internalNodes>
            0 -1 545 -1.4175665273796767e-04</internalNodes>
          <leafValues>
            2.6495894789695740e-01 -2.3000450432300568e-01</leafValues></_>
        <_>
          <internalNodes>
            0 -1 600 -5.1519472617655993e-04</internalNodes>
          <leafValues>
            -4.5159575343132019e-01 1.1237686872482300e-01</leafValues></_>
        <_>
          <internalNodes>
            0 -1 534 1.3671684428118169e-05</internalNodes>
          <leafValues>
            -2.4803680181503296e-01 2.3338703811168671e-01</leafValues></_>
        <_>
          <internalNodes>
            0 -1 628 4.2561581358313560e-04</internalNodes>
          <leafValues>
            1.2237353622913361e-01 -4.9437141418457031e-01</leafValues></_>
        <_>
          <internalNodes>
            0 -1 567 7.8112632036209106e-03</internalNodes>
          <leafValues>
            -1.5613096952438354e-01 3.9134809374809265e-01</leafValues></_>
        <_>
          <internalNodes>
            0 -1 630 8.0487929517403245e-04</internalNodes>
          <leafValues>
            1.2114081531763077e-01 -5.0607275962829590e-01</leafValues></_>
        <_>
          <internalNodes>
            0 -1 175 -2.0113351941108704e-01</internalNodes>
          <leafValues>
            6.5757632255554199e-01 -9.2103019356727600e-02</leafValues></_></weakClassifiers></_>
    <!-- stage 8 -->
    <_>
      <maxWeakCount>24</maxWeakCount>
      <stageThreshold>-1.1171131134033203e+00</stageThreshold>
      <weakClassifiers>
        <_>
          <internalNodes>
            0 -1 131 2.1371012553572655e-02</internalNodes>
          <leafValues>
            -2.7900287508964539e-01 3.8441213965415955e-01</leafValues></_>
        <_>
          <internalNodes>
            0 -1 375 -5.5152829736471176e-03</internalNodes>
          <leafValues>
            4.5125985145568848e-01 -1.4308971166610718e-01</leafValues></_>
        <_>
          <internalNodes>
            0 -1 512 -2.2798385471105576e-02</internalNodes>
          <leafValues>
            2.9766792058944702e-01 -2.4654978513717651e-01</leafValues></_>
        <_>
          <internalNodes>
            0 -1 431 5.5388724431395531e-03</internalNodes>
          <leafValues>
            -2.3005664348602295e-01 3.0053511261940002e-01</leafValues></_>
        <_>
          <internalNodes>
            0 -1 20 3.2455770997330546e-04</internalNodes>
          <leafValues>
            1.3261158764362335e-01 -5.4304987192153931e-01</leafValues></_>
        <_>
          <internalNodes>
            0 -1 22 -3.0743982642889023e-04</internalNodes>
          <leafValues>
            -4.4458991289138794e-01 1.8525721132755280e-01</leafValues></_>
        <_>
          <internalNodes>
            0 -1 292 7.4439011514186859e-03</internalNodes>
          <leafValues>
            -1.1362046748399734e-01 5.6257164478302002e-01</leafValues></_>
        <_>
          <internalNodes>
            0 -1 262 -3.5551874898374081e-03</internalNodes>
          <leafValues>
            4.0055236220359802e-01 -1.4297263324260712e-01</leafValues></_>
        <_>
          <internalNodes>
            0 -1 59 2.5545497192069888e-04</internalNodes>
          <leafValues>
            1.3576342165470123e-01 -4.3659630417823792e-01</leafValues></_>
        <_>
          <internalNodes>
            0 -1 161 1.3527774251997471e-02</internalNodes>
          <leafValues>
            -1.1947496235370636e-01 4.5103123784065247e-01</leafValues></_>
        <_>
          <internalNodes>
            0 -1 508 -6.0942910611629486e-02</internalNodes>
          <leafValues>
            4.6668684482574463e-01 -1.2513804435729980e-01</leafValues></_>
        <_>
          <internalNodes>
            0 -1 118 -5.0068512558937073e-02</internalNodes>
          <leafValues>
            5.2299714088439941e-01 -9.9564313888549805e-02</leafValues></_>
        <_>
          <internalNodes>
            0 -1 602 -9.1912667267024517e-04</internalNodes>
          <leafValues>
            -4.9139446020126343e-01 1.1466223001480103e-01</leafValues></_>
        <_>
          <internalNodes>
            0 -1 342 1.0080408304929733e-02</internalNodes>
          <leafValues>
            -6.3610747456550598e-02 6.7122274637222290e-01</leafValues></_>
        <_>
          <internalNodes>
            0 -1 603 -3.1280788243748248e-04</internalNodes>
          <leafValues>
            -4.8318761587142944e-01 1.1910575628280640e-01</leafValues></_>
        <_>
          <internalNodes>
            0 -1 119 -9.4047468155622482e-03</internalNodes>
          <leafValues>
            2.4954575300216675e-01 -2.2835530340671539e-01</leafValues></_>
        <_>
          <internalNodes>
            0 -1 52 1.3555891346186399e-03</internalNodes>
          <leafValues>
            9.3830578029155731e-02 -6.0125970840454102e-01</leafValues></_>
        <_>
          <internalNodes>
            0 -1 285 1.6268905252218246e-02</internalNodes>
          <leafValues>
            -1.6036657989025116e-01 3.9534473419189453e-01</leafValues></_>
        <_>
          <internalNodes>
            0 -1 255 2.7407403104007244e-03</internalNodes>
          <leafValues>
            -2.2154137492179871e-01 2.9938492178916931e-01</leafValues></_>
        <_>
          <internalNodes>
            0 -1 293 2.3144906386733055e-02</internalNodes>
          <leafValues>
            -1.3503344357013702e-01 3.8665783405303955e-01</leafValues></_>
        <_>
          <internalNodes>
            0 -1 452 1.7887961803353392e-05</internalNodes>
          <leafValues>
            -2.4048581719398499e-01 2.3019310832023621e-01</leafValues></_>
        <_>
          <internalNodes>
            0 -1 68 2.6595097733661532e-04</internalNodes>
          <leafValues>
            1.5523998439311981e-01 -3.7542995810508728e-01</leafValues></_>
        <_>
          <internalNodes>
            0 -1 237 2.6041702367365360e-03</internalNodes>
          <leafValues>
            -1.7377655208110809e-01 2.9733064770698547e-01</leafValues></_>
        <_>
          <internalNodes>
            0 -1 599 3.8033779128454626e-04</internalNodes>
          <leafValues>
            1.6644410789012909e-01 -3.4887906908988953e-01</leafValues></_></weakClassifiers></_>
    <!-- stage 9 -->
    <_>
      <maxWeakCount>28</maxWeakCount>
      <stageThreshold>-1.0766527652740479e+00</stageThreshold>
      <weakClassifiers>
        <_>
          <internalNodes>
            0 -1 450 -3.4938409924507141e-02</internalNodes>
          <leafValues>
            5.1674640178680420e-01 -1.5629522502422333e-01</leafValues></_>
        <_>
          <internalNodes>
            0 -1 502 -2.4603832571301609e-05</internalNodes>
          <leafValues>
            2.2619517147541046e-01 -2.5413396954536438e-01</leafValues></_>
        <_>
          <internalNodes>
            0 -1 458 -5.3368818014860153e-02</internalNodes>
          <leafValues>
            -6.2604081630706787e-01 8.8526159524917603e-02</leafValues></_>
        <_>
          <internalNodes>
            0 -1 91 -2.8907768428325653e-02</internalNodes>
          <leafValues>
            3.6446467041969299e-01 -1.3145540654659271e-01</leafValues></_>
        <_>
          <internalNodes>
            0 -1 243 3.5432144999504089e-02</internalNodes>
          <leafValues>
            -1.2659645080566406e-01 5.5146181583404541e-01</leafValues></_>
        <_>
          <internalNodes>
            0 -1 129 -9.0908065438270569e-02</internalNodes>
          <leafValues>
            5.2324563264846802e-01 -8.8331371545791626e-02</leafValues></_>
        <_>
          <internalNodes>
            0 -1 496 -2.9061373788863420e-03</internalNodes>
          <leafValues>
            -6.7632210254669189e-01 6.7719258368015289e-02</leafValues></_>
        <_>
          <internalNodes>
            0 -1 152 -3.1072416459210217e-04</internalNodes>
          <leafValues>
            -4.1932189464569092e-01 1.1873535811901093e-01</leafValues></_>
        <_>
          <internalNodes>
            0 -1 434 -2.5969434063881636e-03</internalNodes>
          <leafValues>
            2.9922115802764893e-01 -1.7472997307777405e-01</leafValues></_>
        <_>
          <internalNodes>
            0 -1 477 9.3440011143684387e-02</internalNodes>
          <leafValues>
            -1.2139969319105148e-01 4.1110855340957642e-01</leafValues></_>
        <_>
          <internalNodes>
            0 -1 541 -1.1332095600664616e-02</internalNodes>
          <leafValues>
            4.2647063732147217e-01 -1.4295843243598938e-01</leafValues></_>
        <_>
          <internalNodes>
            0 -1 270 -7.0949521614238620e-04</internalNodes>
          <leafValues>
            -5.3359448909759521e-01 8.8032364845275879e-02</leafValues></_>
        <_>
          <internalNodes>
            0 -1 150 -9.1377831995487213e-03</internalNodes>
          <leafValues>
            3.1677708029747009e-01 -1.5879616141319275e-01</leafValues></_>
        <_>
          <internalNodes>
            0 -1 339 6.6635065013542771e-04</internalNodes>
          <leafValues>
            -3.0752924084663391e-01 1.7659433186054230e-01</leafValues></_>
        <_>
          <internalNodes>
            0 -1 124 -2.3565287119708955e-04</internalNodes>
          <leafValues>
            -3.3142197132110596e-01 1.4984527230262756e-01</leafValues></_>
        <_>
          <internalNodes>
            0 -1 314 1.4204341823642608e-05</internalNodes>
          <leafValues>
            -2.2090734541416168e-01 2.3327647149562836e-01</leafValues></_>
        <_>
          <internalNodes>
            0 -1 96 2.5238835951313376e-04</internalNodes>
          <leafValues>
            1.7172496020793915e-01 -3.1215164065361023e-01</leafValues></_>
        <_>
          <internalNodes>
            0 -1 97 -2.2259391844272614e-02</internalNodes>
          <leafValues>
            3.8410466909408569e-01 -1.4642395079135895e-01</leafValues></_>
        <_>
          <internalNodes>
            0 -1 625 3.0635721050202847e-03</internalNodes>
          <leafValues>
            1.1332724243402481e-01 -4.8606044054031372e-01</leafValues></_>
        <_>
          <internalNodes>
            0 -1 480 1.2203401885926723e-02</internalNodes>
          <leafValues>
            -1.1263473331928253e-01 4.5365029573440552e-01</leafValues></_>
        <_>
          <internalNodes>
            0 -1 210 2.1713463589549065e-02</internalNodes>
          <leafValues>
            -1.3796761631965637e-01 3.5333779454231262e-01</leafValues></_>
        <_>
          <internalNodes>
            0 -1 226 1.2005783617496490e-02</internalNodes>
          <leafValues>
            -1.6042046248912811e-01 3.1703460216522217e-01</leafValues></_>
        <_>
          <internalNodes>
            0 -1 418 2.6046312414109707e-03</internalNodes>
          <leafValues>
            -1.5840163826942444e-01 3.9512610435485840e-01</leafValues></_>
        <_>
          <internalNodes>
            0 -1 254 -3.6583527922630310e-02</internalNodes>
          <leafValues>
            -5.5501228570938110e-01 8.3653174340724945e-02</leafValues></_>
        <_>
          <internalNodes>
            0 -1 164 -4.7000416088849306e-05</internalNodes>
          <leafValues>
            2.1494051814079285e-01 -2.3735204339027405e-01</leafValues></_>
        <_>
          <internalNodes>
            0 -1 70 5.9692107606679201e-04</internalNodes>
          <leafValues>
            1.2412066757678986e-01 -4.0367999672889709e-01</leafValues></_>
        <_>
          <internalNodes>
            0 -1 323 2.2009860258549452e-03</internalNodes>
          <leafValues>
            -1.7352885007858276e-01 3.3207392692565918e-01</leafValues></_>
        <_>
          <internalNodes>
            0 -1 554 2.7018867433071136e-02</internalNodes>
          <leafValues>
            -8.9106552302837372e-02 5.3404766321182251e-01</leafValues></_></weakClassifiers></_>
    <!-- stage 10 -->
    <_>
      <maxWeakCount>26</maxWeakCount>
      <stageThreshold>-9.5721942186355591e-01</stageThreshold>
      <weakClassifiers>
        <_>
          <internalNodes>
            0 -1 29 -6.3460180535912514e-03</internalNodes>
          <leafValues>
            3.3155792951583862e-01 -2.3736892640590668e-01</leafValues></_>
        <_>
          <internalNodes>
            0 -1 43 6.2961119413375854e-01</internalNodes>
          <leafValues>
            -1.0468617826700211e-01 6.2952947616577148e-01</leafValues></_>
        <_>
          <internalNodes>
            0 -1 542 6.4016968011856079e-02</internalNodes>
          <leafValues>
            -9.1521419584751129e-02 5.6531029939651489e-01</leafValues></_>
        <_>
          <internalNodes>
            0 -1 514 2.3439805954694748e-03</internalNodes>
          <leafValues>
            -1.4696028828620911e-01 3.7670150399208069e-01</leafValues></_>
        <_>
          <internalNodes>
            0 -1 79 8.8329263962805271e-04</internalNodes>
          <leafValues>
            7.3855914175510406e-02 -5.3769558668136597e-01</leafValues></_>
        <_>
          <internalNodes>
            0 -1 417 2.5672366973594762e-05</internalNodes>
          <leafValues>
            -2.1196417510509491e-01 2.4385166168212891e-01</leafValues></_>
        <_>
          <internalNodes>
            0 -1 395 2.9300176538527012e-03</internalNodes>
          <leafValues>
            -1.9218465685844421e-01 3.0721452832221985e-01</leafValues></_>
        <_>
          <internalNodes>
            0 -1 142 7.0256657898426056e-02</internalNodes>
          <leafValues>
            1.2741442024707794e-01 -6.5962845087051392e-01</leafValues></_>
        <_>
          <internalNodes>
            0 -1 425 1.3224813155829906e-03</internalNodes>
          <leafValues>
            -1.9652529060840607e-01 2.9277768731117249e-01</leafValues></_>
        <_>
          <internalNodes>
            0 -1 292 4.3846881017088890e-03</internalNodes>
          <leafValues>
            -1.5397676825523376e-01 3.5911989212036133e-01</leafValues></_>
        <_>
          <internalNodes>
            0 -1 597 -1.3187481090426445e-03</internalNodes>
          <leafValues>
            -5.9417963027954102e-01 9.9458836019039154e-02</leafValues></_>
        <_>
          <internalNodes>
            0 -1 463 8.3944238722324371e-03</internalNodes>
          <leafValues>
            -1.5600202977657318e-01 3.1814217567443848e-01</leafValues></_>
        <_>
          <internalNodes>
            0 -1 626 -2.1009784541092813e-04</internalNodes>
          <leafValues>
            -3.8203084468841553e-01 1.3655422627925873e-01</leafValues></_>
        <_>
          <internalNodes>
            0 -1 626 2.3915109341032803e-04</internalNodes>
          <leafValues>
            1.4536708593368530e-01 -3.6665561795234680e-01</leafValues></_>
        <_>
          <internalNodes>
            0 -1 465 4.8028258606791496e-04</internalNodes>
          <leafValues>
            -1.8568217754364014e-01 2.5952386856079102e-01</leafValues></_>
        <_>
          <internalNodes>
            0 -1 466 1.8485463806428015e-04</internalNodes>
          <leafValues>
            -1.6545625030994415e-01 3.0940467119216919e-01</leafValues></_>
        <_>
          <internalNodes>
            0 -1 112 4.7914618626236916e-03</internalNodes>
          <leafValues>
            8.0860041081905365e-02 -5.9293359518051147e-01</leafValues></_>
        <_>
          <internalNodes>
            0 -1 570 -2.4774454534053802e-02</internalNodes>
          <leafValues>
            5.2197659015655518e-01 -9.8436079919338226e-02</leafValues></_>
        <_>
          <internalNodes>
            0 -1 575 2.2560409270226955e-03</internalNodes>
          <leafValues>
            -1.3161271810531616e-01 3.2515484094619751e-01</leafValues></_>
        <_>
          <internalNodes>
            0 -1 165 2.0995680242776871e-03</internalNodes>
          <leafValues>
            -1.5907847881317139e-01 3.1026065349578857e-01</leafValues></_>
        <_>
          <internalNodes>
            0 -1 173 -3.2999548129737377e-03</internalNodes>
          <leafValues>
            5.8714741468429565e-01 -8.0236375331878662e-02</leafValues></_>
        <_>
          <internalNodes>
            0 -1 438 4.8142317682504654e-03</internalNodes>
          <leafValues>
            9.1193005442619324e-02 -6.0495966672897339e-01</leafValues></_>
        <_>
          <internalNodes>
            0 -1 60 -1.6251651686616242e-04</internalNodes>
          <leafValues>
            -3.3153110742568970e-01 1.2560611963272095e-01</leafValues></_>
        <_>
          <internalNodes>
            0 -1 257 1.4901456888765097e-03</internalNodes>
          <leafValues>
            -1.8453897535800934e-01 2.3282510042190552e-01</leafValues></_>
        <_>
          <internalNodes>
            0 -1 242 2.8534382581710815e-02</internalNodes>
          <leafValues>
            -1.1757390946149826e-01 3.9531937241554260e-01</leafValues></_>
        <_>
          <internalNodes>
            0 -1 582 1.5900956932455301e-03</internalNodes>
          <leafValues>
            8.4084115922451019e-02 -5.9033077955245972e-01</leafValues></_></weakClassifiers></_>
    <!-- stage 11 -->
    <_>
      <maxWeakCount>34</maxWeakCount>
      <stageThreshold>-1.0993871688842773e+00</stageThreshold>
      <weakClassifiers>
        <_>
          <internalNodes>
            0 -1 606 -5.0350755918771029e-04</internalNodes>
          <leafValues>
            -4.7294119000434875e-01 1.4618182182312012e-01</leafValues></_>
        <_>
          <internalNodes>
            0 -1 412 -4.1912563145160675e-02</internalNodes>
          <leafValues>
            3.8494262099266052e-01 -1.7190605401992798e-01</leafValues></_>
        <_>
          <internalNodes>
            0 -1 41 -8.0972075462341309e-02</internalNodes>
          <leafValues>
            5.6349790096282959e-01 -7.5497023761272430e-02</leafValues></_>
        <_>
          <internalNodes>
            0 -1 133 7.7971965074539185e-02</internalNodes>
          <leafValues>
            -1.1461275815963745e-01 4.9530261754989624e-01</leafValues></_>
        <_>
          <internalNodes>
            0 -1 364 -2.4962462703115307e-05</internalNodes>
          <leafValues>
            2.2619117796421051e-01 -2.1174484491348267e-01</leafValues></_>
        <_>
          <internalNodes>
            0 -1 606 1.8404728325549513e-04</internalNodes>
          <leafValues>
            2.2214441001415253e-01 -2.9544448852539063e-01</leafValues></_>
        <_>
          <internalNodes>
            0 -1 423 5.4516328964382410e-04</internalNodes>
          <leafValues>
            -2.4538353085517883e-01 3.0151847004890442e-01</leafValues></_>
        <_>
          <internalNodes>
            0 -1 382 -2.8963692486286163e-02</internalNodes>
          <leafValues>
            -6.3423842191696167e-01 1.2787613272666931e-01</leafValues></_>
        <_>
          <internalNodes>
            0 -1 350 1.1725157492037397e-05</internalNodes>
          <leafValues>
            -2.3054973781108856e-01 2.1286675333976746e-01</leafValues></_>
        <_>
          <internalNodes>
            0 -1 349 -1.2582282579387538e-05</internalNodes>
          <leafValues>
            2.6839235424995422e-01 -1.8652817606925964e-01</leafValues></_>
        <_>
          <internalNodes>
            0 -1 546 -3.0079245567321777e-02</internalNodes>
          <leafValues>
            3.7250319123268127e-01 -1.3552445173263550e-01</leafValues></_>
        <_>
          <internalNodes>
            0 -1 356 8.3211846649646759e-03</internalNodes>
          <leafValues>
            -1.3565853238105774e-01 3.6921373009681702e-01</leafValues></_>
        <_>
          <internalNodes>
            0 -1 159 1.2887961231172085e-02</internalNodes>
          <leafValues>
            -2.1311673521995544e-01 3.0409428477287292e-01</leafValues></_>
        <_>
          <internalNodes>
            0 -1 21 2.3774656001478434e-03</internalNodes>
          <leafValues>
            1.1576825380325317e-01 -4.2189103364944458e-01</leafValues></_>
        <_>
          <internalNodes>
            0 -1 564 5.6982627138495445e-03</internalNodes>
          <leafValues>
            -1.4135527610778809e-01 3.9524737000465393e-01</leafValues></_>
        <_>
          <internalNodes>
            0 -1 7 6.1252683401107788e-02</internalNodes>
          <leafValues>
            9.4836302101612091e-02 -6.8479937314987183e-01</leafValues></_>
        <_>
          <internalNodes>
            0 -1 337 3.0411240004468709e-05</internalNodes>
          <leafValues>
            -2.1932792663574219e-01 2.5222784280776978e-01</leafValues></_>
        <_>
          <internalNodes>
            0 -1 233 1.3185453135520220e-03</internalNodes>
          <leafValues>
            -2.0621638000011444e-01 2.4524852633476257e-01</leafValues></_>
        <_>
          <internalNodes>
            0 -1 21 -1.2722606770694256e-03</internalNodes>
          <leafValues>
            -3.4295871853828430e-01 1.6291223466396332e-01</leafValues></_>
        <_>
          <internalNodes>
            0 -1 77 -7.2254156693816185e-03</internalNodes>
          <leafValues>
            -6.0077434778213501e-01 7.5055785477161407e-02</leafValues></_>
        <_>
          <internalNodes>
            0 -1 468 2.0945058204233646e-03</internalNodes>
          <leafValues>
            -1.1777888238430023e-01 4.6496981382369995e-01</leafValues></_>
        <_>
          <internalNodes>
            0 -1 326 9.5670633018016815e-03</internalNodes>
          <leafValues>
            -1.7441949248313904e-01 2.7675381302833557e-01</leafValues></_>
        <_>
          <internalNodes>
            0 -1 379 7.8839883208274841e-02</internalNodes>
          <leafValues>
            9.7210466861724854e-02 -5.3974860906600952e-01</leafValues></_>
        <_>
          <internalNodes>
            0 -1 388 7.1516633033752441e-03</internalNodes>
          <leafValues>
            -2.0234279334545135e-01 3.3213961124420166e-01</leafValues></_>
        <_>
          <internalNodes>
            0 -1 497 -3.2621801365166903e-03</internalNodes>
          <leafValues>
            -5.7121497392654419e-01 8.1564486026763916e-02</leafValues></_>
        <_>
          <internalNodes>
            0 -1 495 7.3625682853162289e-04</internalNodes>
          <leafValues>
            9.7836144268512726e-02 -4.5521634817123413e-01</leafValues></_>
        <_>
          <internalNodes>
            0 -1 381 -4.0607032133266330e-04</internalNodes>
          <leafValues>
            -3.5011458396911621e-01 1.2603530287742615e-01</leafValues></_>
        <_>
          <internalNodes>
            0 -1 158 -2.7684967964887619e-02</internalNodes>
          <leafValues>
            5.0058013200759888e-01 -9.0962707996368408e-02</leafValues></_>
        <_>
          <internalNodes>
            0 -1 83 -3.2259948551654816e-02</internalNodes>
          <leafValues>
            5.0790607929229736e-01 -8.6352050304412842e-02</leafValues></_>
        <_>
          <internalNodes>
            0 -1 373 4.1652498766779900e-03</internalNodes>
          <leafValues>
            -9.9684417247772217e-02 5.3297358751296997e-01</leafValues></_>
        <_>
          <internalNodes>
            0 -1 316 9.2572622001171112e-02</internalNodes>
          <leafValues>
            7.1963012218475342e-02 -7.7705103158950806e-01</leafValues></_>
        <_>
          <internalNodes>
            0 -1 544 -1.2521262466907501e-01</internalNodes>
          <leafValues>
            5.3521317243576050e-01 -1.0461559146642685e-01</leafValues></_>
        <_>
          <internalNodes>
            0 -1 280 2.5307355099357665e-04</internalNodes>
          <leafValues>
            -1.9194608926773071e-01 2.2882027924060822e-01</leafValues></_>
        <_>
          <internalNodes>
            0 -1 180 -6.0193859040737152e-02</internalNodes>
          <leafValues>
            4.5730909705162048e-01 -1.0304304212331772e-01</leafValues></_></weakClassifiers></_>
    <!-- stage 12 -->
    <_>
      <maxWeakCount>28</maxWeakCount>
      <stageThreshold>-1.0035496950149536e+00</stageThreshold>
      <weakClassifiers>
        <_>
          <internalNodes>
            0 -1 447 -1.4947925694286823e-02</internalNodes>
          <leafValues>
            3.6260622739791870e-01 -2.3400366306304932e-01</leafValues></_>
        <_>
          <internalNodes>
            0 -1 596 9.8078024166170508e-05</internalNodes>
          <leafValues>
            1.6608317196369171e-01 -3.4881770610809326e-01</leafValues></_>
        <_>
          <internalNodes>
            0 -1 252 1.9387520849704742e-02</internalNodes>
          <leafValues>
            -2.6787364482879639e-01 2.0404216647148132e-01</leafValues></_>
        <_>
          <internalNodes>
            0 -1 383 4.7948667779564857e-03</internalNodes>
          <leafValues>
            -1.1120789498090744e-01 3.8159066438674927e-01</leafValues></_>
        <_>
          <internalNodes>
            0 -1 413 7.1880104951560497e-03</internalNodes>
          <leafValues>
            -2.3038864135742188e-01 3.3165949583053589e-01</leafValues></_>
        <_>
          <internalNodes>
            0 -1 484 1.8719011917710304e-02</internalNodes>
          <leafValues>
            -2.0537726581096649e-01 2.5460445880889893e-01</leafValues></_>
        <_>
          <internalNodes>
            0 -1 619 1.5319102385547012e-04</internalNodes>
          <leafValues>
            1.1989029496908188e-01 -3.7778440117835999e-01</leafValues></_>
        <_>
          <internalNodes>
            0 -1 402 6.3787249382585287e-04</internalNodes>
          <leafValues>
            -1.3707485795021057e-01 3.3128666877746582e-01</leafValues></_>
        <_>
          <internalNodes>
            0 -1 442 2.7233645319938660e-02</internalNodes>
          <leafValues>
            -1.6668157279491425e-01 3.5602423548698425e-01</leafValues></_>
        <_>
          <internalNodes>
            0 -1 130 -4.3915040791034698e-02</internalNodes>
          <leafValues>
            3.5095223784446716e-01 -1.1294501274824142e-01</leafValues></_>
        <_>
          <internalNodes>
            0 -1 410 -2.0472370088100433e-03</internalNodes>
          <leafValues>
            -6.3444608449935913e-01 3.7766799330711365e-02</leafValues></_>
        <_>
          <internalNodes>
            0 -1 409 2.4654809385538101e-03</internalNodes>
          <leafValues>
            6.1251286417245865e-02 -8.6366772651672363e-01</leafValues></_>
        <_>
          <internalNodes>
            0 -1 414 1.2361131608486176e-01</internalNodes>
          <leafValues>
            8.4489047527313232e-02 -5.5155175924301147e-01</leafValues></_>
        <_>
          <internalNodes>
            0 -1 290 -6.1605572700500488e-03</internalNodes>
          <leafValues>
            3.6546283960342407e-01 -1.2871514260768890e-01</leafValues></_>
        <_>
          <internalNodes>
            0 -1 471 4.7722694580443203e-04</internalNodes>
          <leafValues>
            -2.0366658270359039e-01 2.1589167416095734e-01</leafValues></_>
        <_>
          <internalNodes>
            0 -1 436 2.2617129143327475e-03</internalNodes>
          <leafValues>
            1.0364434868097305e-01 -5.8675515651702881e-01</leafValues></_>
        <_>
          <internalNodes>
            0 -1 184 -2.5003927294164896e-04</internalNodes>
          <leafValues>
            -3.6082261800765991e-01 1.1644597351551056e-01</leafValues></_>
        <_>
          <internalNodes>
            0 -1 576 1.3284862972795963e-02</internalNodes>
          <leafValues>
            -1.2370692938566208e-01 3.8425168395042419e-01</leafValues></_>
        <_>
          <internalNodes>
            0 -1 279 8.5194204002618790e-03</internalNodes>
          <leafValues>
            -1.3967265188694000e-01 3.0994343757629395e-01</leafValues></_>
        <_>
          <internalNodes>
            0 -1 67 -4.5673027634620667e-02</internalNodes>
          <leafValues>
            1.8845893442630768e-01 -2.2213695943355560e-01</leafValues></_>
        <_>
          <internalNodes>
            0 -1 121 -1.5484256437048316e-04</internalNodes>
          <leafValues>
            -3.3013194799423218e-01 1.5049816668033600e-01</leafValues></_>
        <_>
          <internalNodes>
            0 -1 172 2.8649978339672089e-02</internalNodes>
          <leafValues>
            -7.6697863638401031e-02 6.8890631198883057e-01</leafValues></_>
        <_>
          <internalNodes>
            0 -1 319 9.9732521921396255e-03</internalNodes>
          <leafValues>
            -1.2992604076862335e-01 3.2661032676696777e-01</leafValues></_>
        <_>
          <internalNodes>
            0 -1 593 -2.3814621381461620e-03</internalNodes>
          <leafValues>
            -4.9246203899383545e-01 8.9138515293598175e-02</leafValues></_>
        <_>
          <internalNodes>
            0 -1 196 5.4664881899952888e-03</internalNodes>
          <leafValues>
            -1.0581202059984207e-01 4.7004121541976929e-01</leafValues></_>
        <_>
          <internalNodes>
            0 -1 45 8.9790467172861099e-03</internalNodes>
          <leafValues>
            -1.2989543378353119e-01 3.9818367362022400e-01</leafValues></_>
        <_>
          <internalNodes>
            0 -1 387 1.8463518936187029e-03</internalNodes>
          <leafValues>
            -1.6728144884109497e-01 2.6350370049476624e-01</leafValues></_>
        <_>
          <internalNodes>
            0 -1 590 1.3253772631287575e-02</internalNodes>
          <leafValues>
            -1.4138802886009216e-01 3.3298137784004211e-01</leafValues></_></weakClassifiers></_>
    <!-- stage 13 -->
    <_>
      <maxWeakCount>37</maxWeakCount>
      <stageThreshold>-1.0844154357910156e+00</stageThreshold>
      <weakClassifiers>
        <_>
          <internalNodes>
            0 -1 440 -2.2059928625822067e-02</internalNodes>
          <leafValues>
            3.9637827873229980e-01 -1.5118956565856934e-01</leafValues></_>
        <_>
          <internalNodes>
            0 -1 481 -2.9833470762241632e-05</internalNodes>
          <leafValues>
            2.1863132715225220e-01 -2.5266602635383606e-01</leafValues></_>
        <_>
          <internalNodes>
            0 -1 622 -2.7908536139875650e-04</internalNodes>
          <leafValues>
            -4.3352851271629333e-01 1.1924497783184052e-01</leafValues></_>
        <_>
          <internalNodes>
            0 -1 621 4.2348681017756462e-04</internalNodes>
          <leafValues>
            1.3082222640514374e-01 -4.9113741517066956e-01</leafValues></_>
        <_>
          <internalNodes>
            0 -1 46 -2.6673566550016403e-02</internalNodes>
          <leafValues>
            3.0113956332206726e-01 -1.9278530776500702e-01</leafValues></_>
        <_>
          <internalNodes>
            0 -1 229 3.2296222634613514e-03</internalNodes>
          <leafValues>
            -1.2739242613315582e-01 4.0761128067970276e-01</leafValues></_>
        <_>
          <internalNodes>
            0 -1 296 2.5672587071312591e-05</internalNodes>
          <leafValues>
            -2.2030791640281677e-01 2.1280202269554138e-01</leafValues></_>
        <_>
          <internalNodes>
            0 -1 37 3.1275447690859437e-04</internalNodes>
          <leafValues>
            1.2254820019006729e-01 -3.8914152979850769e-01</leafValues></_>
        <_>
          <internalNodes>
            0 -1 532 1.1985135643044487e-05</internalNodes>
          <leafValues>
            -2.1867829561233521e-01 2.0505850017070770e-01</leafValues></_>
        <_>
          <internalNodes>
            0 -1 147 -1.5349275432527065e-02</internalNodes>
          <leafValues>
            -4.7263437509536743e-01 7.5863331556320190e-02</leafValues></_>
        <_>
          <internalNodes>
            0 -1 120 -1.1792590841650963e-02</internalNodes>
          <leafValues>
            -7.9937416315078735e-01 7.2521463036537170e-02</leafValues></_>
        <_>
          <internalNodes>
            0 -1 238 2.2714491933584213e-03</internalNodes>
          <leafValues>
            -1.9038003683090210e-01 2.4937103688716888e-01</leafValues></_>
        <_>
          <internalNodes>
            0 -1 547 1.4237632058211602e-05</internalNodes>
          <leafValues>
            -1.9310526549816132e-01 2.2988937795162201e-01</leafValues></_>
        <_>
          <internalNodes>
            0 -1 429 1.4133097465673927e-05</internalNodes>
          <leafValues>
            -2.0766665041446686e-01 2.3892308771610260e-01</leafValues></_>
        <_>
          <internalNodes>
            0 -1 125 -6.6717672161757946e-03</internalNodes>
          <leafValues>
            3.8819658756256104e-01 -1.1579790711402893e-01</leafValues></_>
        <_>
          <internalNodes>
            0 -1 65 -1.9583564717322588e-03</internalNodes>
          <leafValues>
            -4.4261398911476135e-01 1.1836849153041840e-01</leafValues></_>
        <_>
          <internalNodes>
            0 -1 222 3.7093967199325562e-02</internalNodes>
          <leafValues>
            -8.4843195974826813e-02 5.8621609210968018e-01</leafValues></_>
        <_>
          <internalNodes>
            0 -1 385 -1.9071049988269806e-02</internalNodes>
          <leafValues>
            -3.6833801865577698e-01 1.2533913552761078e-01</leafValues></_>
        <_>
          <internalNodes>
            0 -1 453 2.5983389467000961e-02</internalNodes>
          <leafValues>
            -1.3599188625812531e-01 3.3842203021049500e-01</leafValues></_>
        <_>
          <internalNodes>
            0 -1 297 1.1650926353468094e-05</internalNodes>
          <leafValues>
            -1.7794422805309296e-01 2.3667925596237183e-01</leafValues></_>
        <_>
          <internalNodes>
            0 -1 206 1.0358435101807117e-02</internalNodes>
          <leafValues>
            -1.1876421421766281e-01 3.5140043497085571e-01</leafValues></_>
        <_>
          <internalNodes>
            0 -1 99 3.1271975487470627e-02</internalNodes>
          <leafValues>
            1.2106639146804810e-01 -3.4980043768882751e-01</leafValues></_>
        <_>
          <internalNodes>
            0 -1 511 3.4702926874160767e-02</internalNodes>
          <leafValues>
            -1.2550561130046844e-01 3.4831970930099487e-01</leafValues></_>
        <_>
          <internalNodes>
            0 -1 629 -1.5607598470523953e-04</internalNodes>
          <leafValues>
            -3.2544618844985962e-01 1.3215671479701996e-01</leafValues></_>
        <_>
          <internalNodes>
            0 -1 488 8.7839915067888796e-05</internalNodes>
          <leafValues>
            -1.8885588645935059e-01 2.2255907952785492e-01</leafValues></_>
        <_>
          <internalNodes>
            0 -1 111 -2.1312045864760876e-03</internalNodes>
          <leafValues>
            2.9012256860733032e-01 -1.4124543964862823e-01</leafValues></_>
        <_>
          <internalNodes>
            0 -1 72 -6.8476720480248332e-04</internalNodes>
          <leafValues>
            -4.7127604484558105e-01 8.3084419369697571e-02</leafValues></_>
        <_>
          <internalNodes>
            0 -1 367 9.0966727584600449e-03</internalNodes>
          <leafValues>
            4.6227809041738510e-02 -8.4957385063171387e-01</leafValues></_>
        <_>
          <internalNodes>
            0 -1 533 -1.2538667768239975e-02</internalNodes>
          <leafValues>
            4.3363916873931885e-01 -1.0309629142284393e-01</leafValues></_>
        <_>
          <internalNodes>
            0 -1 140 2.3631360381841660e-03</internalNodes>
          <leafValues>
            -9.8708055913448334e-02 4.1373321413993835e-01</leafValues></_>
        <_>
          <internalNodes>
            0 -1 240 -7.2524072602391243e-03</internalNodes>
          <leafValues>
            -8.7247848510742188e-01 5.5594455450773239e-02</leafValues></_>
        <_>
          <internalNodes>
            0 -1 186 4.1150245815515518e-03</internalNodes>
          <leafValues>
            -1.0154127329587936e-01 4.6229019761085510e-01</leafValues></_>
        <_>
          <internalNodes>
            0 -1 128 -8.0398814752697945e-03</internalNodes>
          <leafValues>
            5.0021541118621826e-01 -7.9697087407112122e-02</leafValues></_>
        <_>
          <internalNodes>
            0 -1 401 6.1764665879309177e-03</internalNodes>
          <leafValues>
            5.3568892180919647e-02 -8.0046558380126953e-01</leafValues></_>
        <_>
          <internalNodes>
            0 -1 115 9.7084179287776351e-04</internalNodes>
          <leafValues>
            9.0861238539218903e-02 -3.8858333230018616e-01</leafValues></_>
        <_>
          <internalNodes>
            0 -1 451 -2.1400125697255135e-03</internalNodes>
          <leafValues>
            3.1789442896842957e-01 -1.3078476488590240e-01</leafValues></_>
        <_>
          <internalNodes>
            0 -1 523 -2.6118559617316350e-05</internalNodes>
          <leafValues>
            2.2046166658401489e-01 -1.9509078562259674e-01</leafValues></_></weakClassifiers></_>
    <!-- stage 14 -->
    <_>
      <maxWeakCount>36</maxWeakCount>
      <stageThreshold>-1.1177368164062500e+00</stageThreshold>
      <weakClassifiers>
        <_>
          <internalNodes>
            0 -1 498 -2.7174684219062328e-03</internalNodes>
          <leafValues>
            2.3995406925678253e-01 -2.2497308254241943e-01</leafValues></_>
        <_>
          <internalNodes>
            0 -1 12 3.7131461431272328e-04</internalNodes>
          <leafValues>
            1.1285836994647980e-01 -4.4531229138374329e-01</leafValues></_>
        <_>
          <internalNodes>
            0 -1 3 -1.2287645949982107e-04</internalNodes>
          <leafValues>
            -2.6318567991256714e-01 2.0062048733234406e-01</leafValues></_>
        <_>
          <internalNodes>
            0 -1 116 1.8329741060733795e-01</internalNodes>
          <leafValues>
            -1.3050726056098938e-01 5.4471909999847412e-01</leafValues></_>
        <_>
          <internalNodes>
            0 -1 155 -6.8328240886330605e-03</internalNodes>
          <leafValues>
            2.5497734546661377e-01 -1.9396410882472992e-01</leafValues></_>
        <_>
          <internalNodes>
            0 -1 30 8.3977647125720978e-02</internalNodes>
          <leafValues>
            -2.0510336384177208e-02 7.1204948425292969e-01</leafValues></_>
        <_>
          <internalNodes>
            0 -1 472 3.6117150448262691e-03</internalNodes>
          <leafValues>
            5.9267342090606689e-02 -6.9624030590057373e-01</leafValues></_>
        <_>
          <internalNodes>
            0 -1 560 2.4747846648097038e-02</internalNodes>
          <leafValues>
            -1.5280061960220337e-01 2.8906819224357605e-01</leafValues></_>
        <_>
          <internalNodes>
            0 -1 315 2.9143941355869174e-04</internalNodes>
          <leafValues>
            -2.1685142815113068e-01 1.8819287419319153e-01</leafValues></_>
        <_>
          <internalNodes>
            0 -1 561 3.6910204216837883e-03</internalNodes>
          <leafValues>
            -1.0876011103391647e-01 4.7876581549644470e-01</leafValues></_>
        <_>
          <internalNodes>
            0 -1 217 -7.7011818066239357e-03</internalNodes>
          <leafValues>
            3.0948624014854431e-01 -1.2479070574045181e-01</leafValues></_>
        <_>
          <internalNodes>
            0 -1 228 1.2176711607025936e-05</internalNodes>
          <leafValues>
            -2.0206728577613831e-01 2.0986428856849670e-01</leafValues></_>
        <_>
          <internalNodes>
            0 -1 235 2.1540813148021698e-02</internalNodes>
          <leafValues>
            6.9147773087024689e-02 -6.5939527750015259e-01</leafValues></_>
        <_>
          <internalNodes>
            0 -1 160 2.4685859680175781e-03</internalNodes>
          <leafValues>
            -1.3543306291103363e-01 3.1672096252441406e-01</leafValues></_>
        <_>
          <internalNodes>
            0 -1 1 1.2057532148901373e-04</internalNodes>
          <leafValues>
            1.4413921535015106e-01 -3.0394059419631958e-01</leafValues></_>
        <_>
          <internalNodes>
            0 -1 195 6.3903741538524628e-03</internalNodes>
          <leafValues>
            7.8893385827541351e-02 -5.1108199357986450e-01</leafValues></_>
        <_>
          <internalNodes>
            0 -1 426 2.7528919745236635e-03</internalNodes>
          <leafValues>
            -1.2820743024349213e-01 3.1081143021583557e-01</leafValues></_>
        <_>
          <internalNodes>
            0 -1 470 6.0790358111262321e-03</internalNodes>
          <leafValues>
            5.7344567030668259e-02 -7.6483172178268433e-01</leafValues></_>
        <_>
          <internalNodes>
            0 -1 294 1.7378478078171611e-03</internalNodes>
          <leafValues>
            -1.6616582870483398e-01 2.5959685444831848e-01</leafValues></_>
        <_>
          <internalNodes>
            0 -1 467 1.0247948812320828e-03</internalNodes>
          <leafValues>
            -1.2555727362632751e-01 3.7350869178771973e-01</leafValues></_>
        <_>
          <internalNodes>
            0 -1 274 -4.0278532542288303e-03</internalNodes>
          <leafValues>
            -4.5669195055961609e-01 8.8752985000610352e-02</leafValues></_>
        <_>
          <internalNodes>
            0 -1 528 7.2047743014991283e-03</internalNodes>
          <leafValues>
            -1.0469724982976913e-01 4.0251746773719788e-01</leafValues></_>
        <_>
          <internalNodes>
            0 -1 139 -1.1271204799413681e-02</internalNodes>
          <leafValues>
            -6.9476413726806641e-01 6.3663423061370850e-02</leafValues></_>
        <_>
          <internalNodes>
            0 -1 253 2.2693920880556107e-02</internalNodes>
          <leafValues>
            7.9350657761096954e-02 -5.0407409667968750e-01</leafValues></_>
        <_>
          <internalNodes>
            0 -1 624 -1.2280791997909546e-04</internalNodes>
          <leafValues>
            -2.8992971777915955e-01 1.4210833609104156e-01</leafValues></_>
        <_>
          <internalNodes>
            0 -1 366 1.6121333464980125e-03</internalNodes>
          <leafValues>
            -1.7072105407714844e-01 2.5816574692726135e-01</leafValues></_>
        <_>
          <internalNodes>
            0 -1 361 1.5237589832395315e-03</internalNodes>
          <leafValues>
            -1.8291386961936951e-01 2.3489122092723846e-01</leafValues></_>
        <_>
          <internalNodes>
            0 -1 352 1.4853689819574356e-02</internalNodes>
          <leafValues>
            -1.4893998205661774e-01 2.8715810179710388e-01</leafValues></_>
        <_>
          <internalNodes>
            0 -1 305 1.3248342275619507e-01</internalNodes>
          <leafValues>
            7.1838021278381348e-02 -7.3357343673706055e-01</leafValues></_>
        <_>
          <internalNodes>
            0 -1 143 -2.1988803055137396e-03</internalNodes>
          <leafValues>
            -5.4748761653900146e-01 7.2271652519702911e-02</leafValues></_>
        <_>
          <internalNodes>
            0 -1 246 9.0158041566610336e-03</internalNodes>
          <leafValues>
            -1.2018575519323349e-01 3.9714550971984863e-01</leafValues></_>
        <_>
          <internalNodes>
            0 -1 153 -8.6011691018939018e-03</internalNodes>
          <leafValues>
            4.5154768228530884e-01 -1.0972570627927780e-01</leafValues></_>
        <_>
          <internalNodes>
            0 -1 156 5.1327594555914402e-03</internalNodes>
          <leafValues>
            -1.6502761840820313e-01 2.5279656052589417e-01</leafValues></_>
        <_>
          <internalNodes>
            0 -1 377 1.6932787839323282e-03</internalNodes>
          <leafValues>
            6.3247650861740112e-02 -6.5955722332000732e-01</leafValues></_>
        <_>
          <internalNodes>
            0 -1 53 -4.3935258872807026e-03</internalNodes>
          <leafValues>
            -6.5660274028778076e-01 5.3262673318386078e-02</leafValues></_>
        <_>
          <internalNodes>
            0 -1 69 1.6506196698173881e-04</internalNodes>
          <leafValues>
            1.2491498142480850e-01 -3.1388828158378601e-01</leafValues></_></weakClassifiers></_>
    <!-- stage 15 -->
    <_>
      <maxWeakCount>33</maxWeakCount>
      <stageThreshold>-8.8613873720169067e-01</stageThreshold>
      <weakClassifiers>
        <_>
          <internalNodes>
            0 -1 88 -5.3226063027977943e-03</internalNodes>
          <leafValues>
            3.0000001192092896e-01 -1.9090908765792847e-01</leafValues></_>
        <_>
          <internalNodes>
            0 -1 445 -2.5505172088742256e-03</internalNodes>
          <leafValues>
            2.8714981675148010e-01 -1.7152239382266998e-01</leafValues></_>
        <_>
          <internalNodes>
            0 -1 272 2.5491365231573582e-03</internalNodes>
          <leafValues>
            9.3364603817462921e-02 -5.0680124759674072e-01</leafValues></_>
        <_>
          <internalNodes>
            0 -1 526 -6.6878691315650940e-02</internalNodes>
          <leafValues>
            3.1920927762985229e-01 -1.2357018142938614e-01</leafValues></_>
        <_>
          <internalNodes>
            0 -1 615 -1.4620553702116013e-03</internalNodes>
          <leafValues>
            -4.8727872967720032e-01 6.3366636633872986e-02</leafValues></_>
        <_>
          <internalNodes>
            0 -1 60 1.1445803102105856e-04</internalNodes>
          <leafValues>
            1.3966299593448639e-01 -3.0009302496910095e-01</leafValues></_>
        <_>
          <internalNodes>
            0 -1 325 4.8037236556410789e-03</internalNodes>
          <leafValues>
            -1.0737772285938263e-01 3.7954106926918030e-01</leafValues></_>
        <_>
          <internalNodes>
            0 -1 281 1.9333416596055031e-02</internalNodes>
          <leafValues>
            -2.0412634313106537e-01 2.3751042783260345e-01</leafValues></_>
        <_>
          <internalNodes>
            0 -1 259 1.6512919217348099e-02</internalNodes>
          <leafValues>
            -1.6256111860275269e-01 3.1800210475921631e-01</leafValues></_>
        <_>
          <internalNodes>
            0 -1 299 -4.6356795355677605e-03</internalNodes>
          <leafValues>
            2.8653910756111145e-01 -1.8299023807048798e-01</leafValues></_>
        <_>
          <internalNodes>
            0 -1 287 3.6795572377741337e-03</internalNodes>
          <leafValues>
            -1.6243776679039001e-01 2.8938424587249756e-01</leafValues></_>
        <_>
          <internalNodes>
            0 -1 627 3.1468694214709103e-04</internalNodes>
          <leafValues>
            1.3161303102970123e-01 -3.5221028327941895e-01</leafValues></_>
        <_>
          <internalNodes>
            0 -1 627 -1.8622282368596643e-04</internalNodes>
          <leafValues>
            -3.4574988484382629e-01 1.2757906317710876e-01</leafValues></_>
        <_>
          <internalNodes>
            0 -1 555 7.1264635771512985e-03</internalNodes>
          <leafValues>
            -1.0699448734521866e-01 3.9017611742019653e-01</leafValues></_>
        <_>
          <internalNodes>
            0 -1 516 9.2146992683410645e-03</internalNodes>
          <leafValues>
            -1.4479590952396393e-01 2.9800286889076233e-01</leafValues></_>
        <_>
          <internalNodes>
            0 -1 549 5.2940305322408676e-03</internalNodes>
          <leafValues>
            -1.4505673944950104e-01 2.9583868384361267e-01</leafValues></_>
        <_>
          <internalNodes>
            0 -1 454 -1.2585027143359184e-03</internalNodes>
          <leafValues>
            -4.9733841419219971e-01 1.0949229449033737e-01</leafValues></_>
        <_>
          <internalNodes>
            0 -1 76 -2.8417157009243965e-03</internalNodes>
          <leafValues>
            2.3940923810005188e-01 -1.8998938798904419e-01</leafValues></_>
        <_>
          <internalNodes>
            0 -1 340 -5.3625362925231457e-03</internalNodes>
          <leafValues>
            4.5352852344512939e-01 -9.3571633100509644e-02</leafValues></_>
        <_>
          <internalNodes>
            0 -1 271 -2.9296660795807838e-03</internalNodes>
          <leafValues>
            -7.0329588651657104e-01 6.9125607609748840e-02</leafValues></_>
        <_>
          <internalNodes>
            0 -1 182 -2.5289295241236687e-02</internalNodes>
          <leafValues>
            4.8980706930160522e-01 -1.0603306442499161e-01</leafValues></_>
        <_>
          <internalNodes>
            0 -1 5 9.3508604913949966e-03</internalNodes>
          <leafValues>
            -5.6781511753797531e-02 6.0061705112457275e-01</leafValues></_>
        <_>
          <internalNodes>
            0 -1 50 -2.2651541978120804e-02</internalNodes>
          <leafValues>
            4.8579606413841248e-01 -7.8067548573017120e-02</leafValues></_>
        <_>
          <internalNodes>
            0 -1 595 8.3922530757263303e-04</internalNodes>
          <leafValues>
            1.3649526238441467e-01 -3.1574535369873047e-01</leafValues></_>
        <_>
          <internalNodes>
            0 -1 1 -2.9180629644542933e-04</internalNodes>
          <leafValues>
            -4.0513291954994202e-01 8.8472716510295868e-02</leafValues></_>
        <_>
          <internalNodes>
            0 -1 207 1.4661899767816067e-03</internalNodes>
          <leafValues>
            -1.2836508452892303e-01 3.2430911064147949e-01</leafValues></_>
        <_>
          <internalNodes>
            0 -1 304 5.2583012729883194e-03</internalNodes>
          <leafValues>
            5.3998991847038269e-02 -8.1511038541793823e-01</leafValues></_>
        <_>
          <internalNodes>
            0 -1 146 5.1035284996032715e-03</internalNodes>
          <leafValues>
            3.9463441818952560e-02 -6.8640363216400146e-01</leafValues></_>
        <_>
          <internalNodes>
            0 -1 215 7.1143149398267269e-03</internalNodes>
          <leafValues>
            -1.1189230531454086e-01 3.5787418484687805e-01</leafValues></_>
        <_>
          <internalNodes>
            0 -1 357 -3.7231769412755966e-02</internalNodes>
          <leafValues>
            -5.4683345556259155e-01 8.0538749694824219e-02</leafValues></_>
        <_>
          <internalNodes>
            0 -1 176 -5.3888531401753426e-03</internalNodes>
          <leafValues>
            3.8421219587326050e-01 -1.2631309032440186e-01</leafValues></_>
        <_>
          <internalNodes>
            0 -1 329 1.1985135643044487e-05</internalNodes>
          <leafValues>
            -2.3633404076099396e-01 1.7735812067985535e-01</leafValues></_>
        <_>
          <internalNodes>
            0 -1 241 -5.3848549723625183e-03</internalNodes>
          <leafValues>
            -5.4997622966766357e-01 8.1133529543876648e-02</leafValues></_></weakClassifiers></_>
    <!-- stage 16 -->
    <_>
      <maxWeakCount>39</maxWeakCount>
      <stageThreshold>-1.0557801723480225e+00</stageThreshold>
      <weakClassifiers>
        <_>
          <internalNodes>
            0 -1 347 -5.7657402008771896e-02</internalNodes>
          <leafValues>
            4.5026177167892456e-01 -1.2129760533571243e-01</leafValues></_>
        <_>
          <internalNodes>
            0 -1 432 -3.9870836772024632e-03</internalNodes>
          <leafValues>
            2.7137041091918945e-01 -1.5180367231369019e-01</leafValues></_>
        <_>
          <internalNodes>
            0 -1 559 -3.4680226817727089e-03</internalNodes>
          <leafValues>
            -5.8941406011581421e-01 5.1491316407918930e-02</leafValues></_>
        <_>
          <internalNodes>
            0 -1 618 -7.3755014454945922e-04</internalNodes>
          <leafValues>
            -3.2287451624870300e-01 1.5173089504241943e-01</leafValues></_>
        <_>
          <internalNodes>
            0 -1 390 2.5672320043668151e-04</internalNodes>
          <leafValues>
            -2.3629739880561829e-01 1.8502880632877350e-01</leafValues></_>
        <_>
          <internalNodes>
            0 -1 308 4.3295638170093298e-04</internalNodes>
          <leafValues>
            -1.8597018718719482e-01 2.2307667136192322e-01</leafValues></_>
        <_>
          <internalNodes>
            0 -1 320 -4.6084824949502945e-02</internalNodes>
          <leafValues>
            -6.6991382837295532e-01 1.8375651910901070e-02</leafValues></_>
        <_>
          <internalNodes>
            0 -1 174 1.4211941510438919e-02</internalNodes>
          <leafValues>
            -1.0158211737871170e-01 3.9533957839012146e-01</leafValues></_>
        <_>
          <internalNodes>
            0 -1 167 -3.5947374999523163e-03</internalNodes>
          <leafValues>
            4.4203212857246399e-01 -1.0137739777565002e-01</leafValues></_>
        <_>
          <internalNodes>
            0 -1 331 4.9560237675905228e-03</internalNodes>
          <leafValues>
            -1.2878069281578064e-01 3.0172288417816162e-01</leafValues></_>
        <_>
          <internalNodes>
            0 -1 372 -1.2047711759805679e-02</internalNodes>
          <leafValues>
            -6.6917479038238525e-01 5.0661299377679825e-02</leafValues></_>
        <_>
          <internalNodes>
            0 -1 78 2.3151220375439152e-05</internalNodes>
          <leafValues>
            -1.7487405240535736e-01 2.0986135303974152e-01</leafValues></_>
        <_>
          <internalNodes>
            0 -1 11 2.9312475817278028e-04</internalNodes>
          <leafValues>
            1.1480656266212463e-01 -4.8039752244949341e-01</leafValues></_>
        <_>
          <internalNodes>
            0 -1 2 2.3019904620014131e-04</internalNodes>
          <leafValues>
            9.8412238061428070e-02 -3.7457263469696045e-01</leafValues></_>
        <_>
          <internalNodes>
            0 -1 275 1.3085283571854234e-03</internalNodes>
          <leafValues>
            -1.0842183977365494e-01 3.5580310225486755e-01</leafValues></_>
        <_>
          <internalNodes>
            0 -1 224 2.3210294544696808e-02</internalNodes>
          <leafValues>
            -1.4804451167583466e-01 2.6404845714569092e-01</leafValues></_>
        <_>
          <internalNodes>
            0 -1 199 -1.9137311726808548e-02</internalNodes>
          <leafValues>
            4.3821859359741211e-01 -9.7913749516010284e-02</leafValues></_>
        <_>
          <internalNodes>
            0 -1 343 1.4557416550815105e-02</internalNodes>
          <leafValues>
            -4.9729112535715103e-02 6.2551087141036987e-01</leafValues></_>
        <_>
          <internalNodes>
            0 -1 232 2.7240514755249023e-03</internalNodes>
          <leafValues>
            -1.8116603791713715e-01 2.0619741082191467e-01</leafValues></_>
        <_>
          <internalNodes>
            0 -1 504 2.5149114662781358e-05</internalNodes>
          <leafValues>
            -2.1284292638301849e-01 1.9028119742870331e-01</leafValues></_>
        <_>
          <internalNodes>
            0 -1 208 -6.4152125269174576e-03</internalNodes>
          <leafValues>
            3.4556797146797180e-01 -1.0443016886711121e-01</leafValues></_>
        <_>
          <internalNodes>
            0 -1 189 6.8666815757751465e-02</internalNodes>
          <leafValues>
            -1.3918501138687134e-01 2.7056118845939636e-01</leafValues></_>
        <_>
          <internalNodes>
            0 -1 203 4.8434529453516006e-03</internalNodes>
          <leafValues>
            -6.4773060381412506e-02 5.6012445688247681e-01</leafValues></_>
        <_>
          <internalNodes>
            0 -1 415 9.8279729485511780e-02</internalNodes>
          <leafValues>
            -9.5491059124469757e-02 4.2195284366607666e-01</leafValues></_>
        <_>
          <internalNodes>
            0 -1 194 3.0294347554445267e-02</internalNodes>
          <leafValues>
            -7.6469011604785919e-02 4.7727599740028381e-01</leafValues></_>
        <_>
          <internalNodes>
            0 -1 485 4.7261035069823265e-03</internalNodes>
          <leafValues>
            -1.1346909403800964e-01 2.9474908113479614e-01</leafValues></_>
        <_>
          <internalNodes>
            0 -1 457 -1.7202638089656830e-02</internalNodes>
          <leafValues>
            -6.4542394876480103e-01 5.9911038726568222e-02</leafValues></_>
        <_>
          <internalNodes>
            0 -1 335 1.1048773303627968e-03</internalNodes>
          <leafValues>
            -1.2761242687702179e-01 3.1594002246856689e-01</leafValues></_>
        <_>
          <internalNodes>
            0 -1 427 -1.9469973631203175e-03</internalNodes>
          <leafValues>
            4.7570434212684631e-01 -7.3527351021766663e-02</leafValues></_>
        <_>
          <internalNodes>
            0 -1 580 4.0942076593637466e-03</internalNodes>
          <leafValues>
            8.0616720020771027e-02 -5.0527918338775635e-01</leafValues></_>
        <_>
          <internalNodes>
            0 -1 433 3.4561194479465485e-03</internalNodes>
          <leafValues>
            7.3516294360160828e-02 -5.3644537925720215e-01</leafValues></_>
        <_>
          <internalNodes>
            0 -1 435 2.3009744472801685e-04</internalNodes>
          <leafValues>
            -2.0274467766284943e-01 2.1314945816993713e-01</leafValues></_>
        <_>
          <internalNodes>
            0 -1 149 1.1464325711131096e-02</internalNodes>
          <leafValues>
            5.5200282484292984e-02 -8.6105227470397949e-01</leafValues></_>
        <_>
          <internalNodes>
            0 -1 181 -5.0474811345338821e-02</internalNodes>
          <leafValues>
            -7.1825408935546875e-01 3.5747729241847992e-02</leafValues></_>
        <_>
          <internalNodes>
            0 -1 109 1.2651074212044477e-04</internalNodes>
          <leafValues>
            1.2013453990221024e-01 -2.9411077499389648e-01</leafValues></_>
        <_>
          <internalNodes>
            0 -1 145 6.3539957627654076e-03</internalNodes>
          <leafValues>
            -1.2624317407608032e-01 3.5226649045944214e-01</leafValues></_>
        <_>
          <internalNodes>
            0 -1 354 1.5501685440540314e-02</internalNodes>
          <leafValues>
            -1.4614863693714142e-01 2.6284641027450562e-01</leafValues></_>
        <_>
          <internalNodes>
            0 -1 218 1.8301488831639290e-02</internalNodes>
          <leafValues>
            4.7371510416269302e-02 -7.6462185382843018e-01</leafValues></_>
        <_>
          <internalNodes>
            0 -1 365 5.3118652431294322e-04</internalNodes>
          <leafValues>
            -1.6405792534351349e-01 2.2478361427783966e-01</leafValues></_></weakClassifiers></_>
    <!-- stage 17 -->
    <_>
      <maxWeakCount>34</maxWeakCount>
      <stageThreshold>-8.9503151178359985e-01</stageThreshold>
      <weakClassifiers>
        <_>
          <internalNodes>
            0 -1 154 5.4757475852966309e-02</internalNodes>
          <leafValues>
            -1.4064915478229523e-01 3.5968378186225891e-01</leafValues></_>
        <_>
          <internalNodes>
            0 -1 137 6.7183462670072913e-04</internalNodes>
          <leafValues>
            -1.0481052100658417e-01 3.3684259653091431e-01</leafValues></_>
        <_>
          <internalNodes>
            0 -1 0 1.1985135643044487e-05</internalNodes>
          <leafValues>
            -1.8083201348781586e-01 2.2269733250141144e-01</leafValues></_>
        <_>
          <internalNodes>
            0 -1 8 -2.2157153114676476e-02</internalNodes>
          <leafValues>
            -5.2356553077697754e-01 7.0873655378818512e-02</leafValues></_>
        <_>
          <internalNodes>
            0 -1 61 6.7428231704980135e-04</internalNodes>
          <leafValues>
            1.1565657705068588e-01 -3.4786495566368103e-01</leafValues></_>
        <_>
          <internalNodes>
            0 -1 370 -7.6167890802025795e-03</internalNodes>
          <leafValues>
            4.9274033308029175e-01 -6.5057195723056793e-02</leafValues></_>
        <_>
          <internalNodes>
            0 -1 6 6.4985533244907856e-03</internalNodes>
          <leafValues>
            1.0166677087545395e-01 -3.7503001093864441e-01</leafValues></_>
        <_>
          <internalNodes>
            0 -1 85 2.0637489855289459e-02</internalNodes>
          <leafValues>
            -8.3365269005298615e-02 4.6879822015762329e-01</leafValues></_>
        <_>
          <internalNodes>
            0 -1 197 -1.2643728405237198e-02</internalNodes>
          <leafValues>
            3.0887082219123840e-01 -1.3142056763172150e-01</leafValues></_>
        <_>
          <internalNodes>
            0 -1 510 1.0806655045598745e-03</internalNodes>
          <leafValues>
            -2.1958944201469421e-01 1.8455253541469574e-01</leafValues></_>
        <_>
          <internalNodes>
            0 -1 105 4.8786912113428116e-02</internalNodes>
          <leafValues>
            8.4995985031127930e-02 -6.7545729875564575e-01</leafValues></_>
        <_>
          <internalNodes>
            0 -1 148 3.8738317787647247e-02</internalNodes>
          <leafValues>
            -1.4521946012973785e-01 2.7073699235916138e-01</leafValues></_>
        <_>
          <internalNodes>
            0 -1 578 4.3668742291629314e-03</internalNodes>
          <leafValues>
            -1.3233837485313416e-01 4.0656509995460510e-01</leafValues></_>
        <_>
          <internalNodes>
            0 -1 338 -2.7208870742470026e-03</internalNodes>
          <leafValues>
            -4.7441837191581726e-01 8.6706385016441345e-02</leafValues></_>
        <_>
          <internalNodes>
            0 -1 392 -1.9469859544187784e-03</internalNodes>
          <leafValues>
            3.7376266717910767e-01 -1.0453575849533081e-01</leafValues></_>
        <_>
          <internalNodes>
            0 -1 389 5.5263233371078968e-03</internalNodes>
          <leafValues>
            -1.1886741966009140e-01 4.4476220011711121e-01</leafValues></_>
        <_>
          <internalNodes>
            0 -1 517 -7.3660071939229965e-03</internalNodes>
          <leafValues>
            -8.4617567062377930e-01 4.3128579854965210e-02</leafValues></_>
        <_>
          <internalNodes>
            0 -1 332 -2.4246164684882388e-05</internalNodes>
          <leafValues>
            1.9017440080642700e-01 -1.7790223658084869e-01</leafValues></_>
        <_>
          <internalNodes>
            0 -1 586 1.6059656627476215e-03</internalNodes>
          <leafValues>
            -7.8007467091083527e-02 4.6223127841949463e-01</leafValues></_>
        <_>
          <internalNodes>
            0 -1 95 6.6683411598205566e-02</internalNodes>
          <leafValues>
            -8.8099777698516846e-02 3.9964580535888672e-01</leafValues></_>
        <_>
          <internalNodes>
            0 -1 10 -6.1286970973014832e-02</internalNodes>
          <leafValues>
            2.7548670768737793e-01 -1.4586649835109711e-01</leafValues></_>
        <_>
          <internalNodes>
            0 -1 301 4.3617985211312771e-03</internalNodes>
          <leafValues>
            -1.1265707761049271e-01 3.5390520095825195e-01</leafValues></_>
        <_>
          <internalNodes>
            0 -1 223 3.3889718353748322e-02</internalNodes>
          <leafValues>
            7.0394657552242279e-02 -6.3774079084396362e-01</leafValues></_>
        <_>
          <internalNodes>
            0 -1 96 -2.1587856463156641e-04</internalNodes>
          <leafValues>
            -2.6588183641433716e-01 1.4488700032234192e-01</leafValues></_>
        <_>
          <internalNodes>
            0 -1 358 9.9033033475279808e-03</internalNodes>
          <leafValues>
            -1.2913054227828979e-01 3.0046480894088745e-01</leafValues></_>
        <_>
          <internalNodes>
            0 -1 558 -2.7766058221459389e-02</internalNodes>
          <leafValues>
            3.2851564884185791e-01 -1.1962186545133591e-01</leafValues></_>
        <_>
          <internalNodes>
            0 -1 101 2.8986984398216009e-03</internalNodes>
          <leafValues>
            -9.5283806324005127e-02 4.0711846947669983e-01</leafValues></_>
        <_>
          <internalNodes>
            0 -1 138 -1.9137094495818019e-03</internalNodes>
          <leafValues>
            3.7120738625526428e-01 -1.1161676794290543e-01</leafValues></_>
        <_>
          <internalNodes>
            0 -1 13 7.3901470750570297e-04</internalNodes>
          <leafValues>
            7.0660710334777832e-02 -5.5257934331893921e-01</leafValues></_>
        <_>
          <internalNodes>
            0 -1 220 -2.0797627803403884e-04</internalNodes>
          <leafValues>
            1.5139085054397583e-01 -2.2724345326423645e-01</leafValues></_>
        <_>
          <internalNodes>
            0 -1 520 -2.6453542523086071e-03</internalNodes>
          <leafValues>
            -4.4883400201797485e-01 7.9044468700885773e-02</leafValues></_>
        <_>
          <internalNodes>
            0 -1 31 8.7711818516254425e-02</internalNodes>
          <leafValues>
            4.2197395116090775e-02 -7.6628792285919189e-01</leafValues></_>
        <_>
          <internalNodes>
            0 -1 462 -7.7149337157607079e-03</internalNodes>
          <leafValues>
            3.5743495821952820e-01 -1.1355582624673843e-01</leafValues></_>
        <_>
          <internalNodes>
            0 -1 302 -4.8410454764962196e-03</internalNodes>
          <leafValues>
            -6.5963292121887207e-01 6.1934221535921097e-02</leafValues></_></weakClassifiers></_>
    <!-- stage 18 -->
    <_>
      <maxWeakCount>34</maxWeakCount>
      <stageThreshold>-1.0118774175643921e+00</stageThreshold>
      <weakClassifiers>
        <_>
          <internalNodes>
            0 -1 411 -2.1484065800905228e-02</internalNodes>
          <leafValues>
            4.7462686896324158e-01 -1.0853242129087448e-01</leafValues></_>
        <_>
          <internalNodes>
            0 -1 66 -3.4784860326908529e-04</internalNodes>
          <leafValues>
            -3.1510141491889954e-01 1.2933295965194702e-01</leafValues></_>
        <_>
          <internalNodes>
            0 -1 344 1.8123904243111610e-02</internalNodes>
          <leafValues>
            -3.4083411097526550e-01 1.2258777767419815e-01</leafValues></_>
        <_>
          <internalNodes>
            0 -1 403 1.0216630471404642e-04</internalNodes>
          <leafValues>
            -1.8806612491607666e-01 2.5055730342864990e-01</leafValues></_>
        <_>
          <internalNodes>
            0 -1 283 1.9434052519500256e-03</internalNodes>
          <leafValues>
            -2.5726184248924255e-01 1.7916683852672577e-01</leafValues></_>
        <_>
          <internalNodes>
            0 -1 539 -1.5124440193176270e-02</internalNodes>
          <leafValues>
            -8.4352445602416992e-01 7.4831448495388031e-02</leafValues></_>
        <_>
          <internalNodes>
            0 -1 573 -1.2872894294559956e-02</internalNodes>
          <leafValues>
            2.4313305318355560e-01 -1.9305685162544250e-01</leafValues></_>
        <_>
          <internalNodes>
            0 -1 572 -8.6253117769956589e-03</internalNodes>
          <leafValues>
            3.1894734501838684e-01 -1.2178017944097519e-01</leafValues></_>
        <_>
          <internalNodes>
            0 -1 608 3.8143659476190805e-03</internalNodes>
          <leafValues>
            1.5479607880115509e-01 -3.6609950661659241e-01</leafValues></_>
        <_>
          <internalNodes>
            0 -1 522 1.2039329856634140e-02</internalNodes>
          <leafValues>
            -1.5001904964447021e-01 3.3746686577796936e-01</leafValues></_>
        <_>
          <internalNodes>
            0 -1 622 -2.3321359185501933e-04</internalNodes>
          <leafValues>
            -3.5067027807235718e-01 1.4468172192573547e-01</leafValues></_>
        <_>
          <internalNodes>
            0 -1 239 2.3896647617220879e-02</internalNodes>
          <leafValues>
            -1.2670405209064484e-01 5.6402486562728882e-01</leafValues></_>
        <_>
          <internalNodes>
            0 -1 327 4.0910691022872925e-03</internalNodes>
          <leafValues>
            -1.3325904309749603e-01 2.9680654406547546e-01</leafValues></_>
        <_>
          <internalNodes>
            0 -1 550 4.2617535218596458e-03</internalNodes>
          <leafValues>
            7.4054121971130371e-02 -5.4198467731475830e-01</leafValues></_>
        <_>
          <internalNodes>
            0 -1 563 1.3564454857259989e-03</internalNodes>
          <leafValues>
            -1.2110541760921478e-01 3.5699865221977234e-01</leafValues></_>
        <_>
          <internalNodes>
            0 -1 550 -2.3170961067080498e-03</internalNodes>
          <leafValues>
            -3.7473213672637939e-01 1.0989268124103546e-01</leafValues></_>
        <_>
          <internalNodes>
            0 -1 368 2.7566969947656617e-05</internalNodes>
          <leafValues>
            -2.0323428511619568e-01 1.8185268342494965e-01</leafValues></_>
        <_>
          <internalNodes>
            0 -1 185 -3.8604997098445892e-04</internalNodes>
          <leafValues>
            -3.4290492534637451e-01 1.2163161486387253e-01</leafValues></_>
        <_>
          <internalNodes>
            0 -1 408 -5.8025475591421127e-03</internalNodes>
          <leafValues>
            2.5746342539787292e-01 -1.6211746633052826e-01</leafValues></_>
        <_>
          <internalNodes>
            0 -1 556 -7.6041170395910740e-03</internalNodes>
          <leafValues>
            2.9010304808616638e-01 -1.2902620434761047e-01</leafValues></_>
        <_>
          <internalNodes>
            0 -1 103 -1.2509703636169434e-02</internalNodes>
          <leafValues>
            3.7122631072998047e-01 -1.0783370584249496e-01</leafValues></_>
        <_>
          <internalNodes>
            0 -1 398 -4.5978971756994724e-03</internalNodes>
          <leafValues>
            3.8144758343696594e-01 -9.8081998527050018e-02</leafValues></_>
        <_>
