<?xml version="1.0"?>
<opencv_storage>
<stage18>
  <maxWeakCount>34</maxWeakCount>
  <stageThreshold>-1.0118774175643921e+00</stageThreshold>
  <weakClassifiers>
    <_>
      <internalNodes>
        0 -1 115291 -2.1484065800905228e-02</internalNodes>
      <leafValues>
        4.7462686896324158e-01 -1.0853242129087448e-01</leafValues></_>
    <_>
      <internalNodes>
        0 -1 10633 -3.4784860326908529e-04</internalNodes>
      <leafValues>
        -3.1510141491889954e-01 1.2933295965194702e-01</leafValues></_>
    <_>
      <internalNodes>
        0 -1 99138 1.8123904243111610e-02</internalNodes>
      <leafValues>
        -3.4083411097526550e-01 1.2258777767419815e-01</leafValues></_>
    <_>
      <internalNodes>
        0 -1 114110 1.0216630471404642e-04</internalNodes>
      <leafValues>
        -1.8806612491607666e-01 2.5055730342864990e-01</leafValues></_>
    <_>
      <internalNodes>
        0 -1 84620 1.9434052519500256e-03</internalNodes>
      <leafValues>
        -2.5726184248924255e-01 1.7916683852672577e-01</leafValues></_>
    <_>
      <internalNodes>
        0 -1 145073 -1.5124440193176270e-02</internalNodes>
      <leafValues>
        -8.4352445602416992e-01 7.4831448495388031e-02</leafValues></_>
    <_>
      <internalNodes>
        0 -1 153015 -1.2872894294559956e-02</internalNodes>
      <leafValues>
        2.4313305318355560e-01 -1.9305685162544250e-01</leafValues></_>
    <_>
      <internalNodes>
        0 -1 152997 -8.6253117769956589e-03</internalNodes>
      <leafValues>
        3.1894734501838684e-01 -1.2178017944097519e-01</leafValues></_>
    <_>
      <internalNodes>
        0 -1 161386 3.8143659476190805e-03</internalNodes>
      <leafValues>
        1.5479607880115509e-01 -3.6609950661659241e-01</leafValues></_>
    <_>
      <internalNodes>
        0 -1 139495 1.2039329856634140e-02</internalNodes>
      <leafValues>
        -1.5001904964447021e-01 3.3746686577796936e-01</leafValues></_>
    <_>
      <internalNodes>
        0 -1 162190 -2.3321359185501933e-04</internalNodes>
      <leafValues>
        -3.5067027807235718e-01 1.4468172192573547e-01</leafValues></_>
    <_>
      <internalNodes>
        0 -1 70589 2.3896647617220879e-02</internalNodes>
      <leafValues>
        -1.2670405209064484e-01 5.6402486562728882e-01</leafValues></_>
    <_>
      <internalNodes>
        0 -1 95201 4.0910691022872925e-03</internalNodes>
      <leafValues>
        -1.3325904309749603e-01 2.9680654406547546e-01</leafValues></_>
    <_>
      <internalNodes>
        0 -1 147641 4.2617535218596458e-03</internalNodes>
      <leafValues>
        7.4054121971130371e-02 -5.4198467731475830e-01</leafValues></_>
    <_>
      <internalNodes>
        0 -1 150668 1.3564454857259989e-03</internalNodes>
      <leafValues>
        -1.2110541760921478e-01 3.5699865221977234e-01</leafValues></_>
    <_>
      <internalNodes>
        0 -1 147641 -2.3170961067080498e-03</internalNodes>
      <leafValues>
        -3.7473213672637939e-01 1.0989268124103546e-01</leafValues></_>
    <_>
      <internalNodes>
        0 -1 106278 2.7566969947656617e-05</internalNodes>
      <leafValues>
        -2.0323428511619568e-01 1.8185268342494965e-01</leafValues></_>
    <_>
      <internalNodes>
        0 -1 49478 -3.8604997098445892e-04</internalNodes>
      <leafValues>
        -3.4290492534637451e-01 1.2163161486387253e-01</leafValues></_>
    <_>
      <internalNodes>
        0 -1 114795 -5.8025475591421127e-03</internalNodes>
      <leafValues>
        2.5746342539787292e-01 -1.6211746633052826e-01</leafValues></_>
    <_>
      <internalNodes>
        0 -1 149227 -7.6041170395910740e-03</internalNodes>
      <leafValues>
        2.9010304808616638e-01 -1.2902620434761047e-01</leafValues></_>
    <_>
      <internalNodes>
        0 -1 21004 -1.2509703636169434e-02</internalNodes>
      <leafValues>
        3.7122631072998047e-01 -1.0783370584249496e-01</leafValues></_>
    <_>
      <internalNodes>
        0 -1 113229 -4.5978971756994724e-03</internalNodes>
      <leafValues>
        3.8144758343696594e-01 -9.8081998527050018e-02</leafValues></_>
    <_>
      <internalNodes>
        0 -1 88472 2.4438439868390560e-03</internalNodes>
      <leafValues>
        -1.6629022359848022e-01 2.5573566555976868e-01</leafValues></_>
    <_>
      <internalNodes>
        0 -1 133521 -2.2475537844002247e-03</internalNodes>
      <leafValues>
        -4.1806727647781372e-01 1.0482118278741837e-01</leafValues></_>
    <_>
      <internalNodes>
        0 -1 114499 -9.5099303871393204e-03</internalNodes>
      <leafValues>
        -7.8175419569015503e-01 3.5058654844760895e-02</leafValues></_>
    <_>
      <internalNodes>
        0 -1 80800 8.5950372740626335e-03</internalNodes>
      <leafValues>
        4.1904535144567490e-02 -7.3095905780792236e-01</leafValues></_>
    <_>
      <internalNodes>
        0 -1 25809 -2.0451701129786670e-04</internalNodes>
      <leafValues>
        -3.1644985079765320e-01 1.1449116468429565e-01</leafValues></_>
    <_>
      <internalNodes>
        0 -1 124334 4.7221854329109192e-03</internalNodes>
      <leafValues>
        -1.1821879446506500e-01 3.0553251504898071e-01</leafValues></_>
    <_>
      <internalNodes>
        0 -1 158717 -2.2422964684665203e-03</internalNodes>
      <leafValues>
        -6.9076979160308838e-01 4.7941975295543671e-02</leafValues></_>
    <_>
      <internalNodes>
        0 -1 138457 3.8470246363431215e-04</internalNodes>
      <leafValues>
        -1.1565924435853958e-01 3.0853471159934998e-01</leafValues></_>
    <_>
      <internalNodes>
        0 -1 119449 2.1824399009346962e-02</internalNodes>
      <leafValues>
        8.1430353224277496e-02 -5.5581867694854736e-01</leafValues></_>
    <_>
      <internalNodes>
        0 -1 93737 2.6868246495723724e-03</internalNodes>
      <leafValues>
        -1.6066671907901764e-01 2.5461402535438538e-01</leafValues></_>
    <_>
      <internalNodes>
        0 -1 77067 1.0490946471691132e-02</internalNodes>
      <leafValues>
        4.8795059323310852e-02 -7.4554616212844849e-01</leafValues></_>
    <_>
      <internalNodes>
        0 -1 53756 -5.8409729972481728e-03</internalNodes>
      <leafValues>
        2.4336817860603333e-01 -1.7634432017803192e-01</leafValues></_></weakClassifiers></stage18>
</opencv_storage>
